digraph Tree {
node [shape=box, style="filled, rounded", color="black", fontname="helvetica"] ;
edge [fontname="helvetica"] ;
0 [label=<age &le; 56.5<br/>gini = 0.5<br/>samples = 2784<br/>value = [1392.0, 1392.0]<br/>class = l>, fillcolor="#ffffff"] ;
1 [label=<age &le; 44.5<br/>gini = 0.316<br/>samples = 1744<br/>value = [912.073, 223.407]<br/>class = C>, fillcolor="#eba069"] ;
0 -> 1 [labeldistance=2.5, labelangle=45, headlabel="True"] ;
2 [label=<age &le; 37.5<br/>gini = 0.124<br/>samples = 1142<br/>value = [603.625, 42.963]<br/>class = C>, fillcolor="#e78a47"] ;
1 -> 2 ;
3 [label=<smoking_status &le; 1.5<br/>gini = 0.038<br/>samples = 827<br/>value = [438.517, 8.593]<br/>class = C>, fillcolor="#e6833d"] ;
2 -> 3 ;
4 [label=<gini = 0.0<br/>samples = 639<br/>value = [339.24, 0.0]<br/>class = C>, fillcolor="#e58139"] ;
3 -> 4 ;
5 [label=<avg_glucose_level &le; 76.235<br/>gini = 0.147<br/>samples = 188<br/>value = [99.277, 8.593]<br/>class = C>, fillcolor="#e78c4a"] ;
3 -> 5 ;
6 [label=<avg_glucose_level &le; 75.815<br/>gini = 0.385<br/>samples = 47<br/>value = [24.421, 8.593]<br/>class = C>, fillcolor="#eead7f"] ;
5 -> 6 ;
7 [label=<gini = 0.0<br/>samples = 46<br/>value = [24.421, 0.0]<br/>class = C>, fillcolor="#e58139"] ;
6 -> 7 ;
8 [label=<gini = 0.0<br/>samples = 1<br/>value = [0.0, 8.593]<br/>class = l>, fillcolor="#399de5"] ;
6 -> 8 ;
9 [label=<gini = 0.0<br/>samples = 141<br/>value = [74.856, 0.0]<br/>class = C>, fillcolor="#e58139"] ;
5 -> 9 ;
10 [label=<age &le; 39.5<br/>gini = 0.285<br/>samples = 315<br/>value = [165.108, 34.37]<br/>class = C>, fillcolor="#ea9b62"] ;
2 -> 10 ;
11 [label=<gender &le; 0.5<br/>gini = 0.494<br/>samples = 84<br/>value = [42.471, 34.37]<br/>class = C>, fillcolor="#fae7d9"] ;
10 -> 11 ;
12 [label=<gini = 0.0<br/>samples = 36<br/>value = [19.112, 0.0]<br/>class = C>, fillcolor="#e58139"] ;
11 -> 12 ;
13 [label=<avg_glucose_level &le; 101.485<br/>gini = 0.482<br/>samples = 48<br/>value = [23.359, 34.37]<br/>class = l>, fillcolor="#c0e0f7"] ;
11 -> 13 ;
14 [label=<bmi &le; 1.5<br/>gini = 0.415<br/>samples = 31<br/>value = [14.334, 34.37]<br/>class = l>, fillcolor="#8cc6f0"] ;
13 -> 14 ;
15 [label=<gini = 0.0<br/>samples = 8<br/>value = [4.247, 0.0]<br/>class = C>, fillcolor="#e58139"] ;
14 -> 15 ;
16 [label=<bmi &le; 4.5<br/>gini = 0.351<br/>samples = 23<br/>value = [10.087, 34.37]<br/>class = l>, fillcolor="#73baed"] ;
14 -> 16 ;
17 [label=<smoking_status &le; 0.5<br/>gini = 0.305<br/>samples = 19<br/>value = [7.963, 34.37]<br/>class = l>, fillcolor="#67b4eb"] ;
16 -> 17 ;
18 [label=<Residence_type &le; 0.5<br/>gini = 0.482<br/>samples = 12<br/>value = [5.84, 8.593]<br/>class = l>, fillcolor="#c0e0f7"] ;
17 -> 18 ;
19 [label=<gini = -0.0<br/>samples = 8<br/>value = [4.247, 0.0]<br/>class = C>, fillcolor="#e58139"] ;
18 -> 19 ;
20 [label=<age &le; 38.5<br/>gini = 0.264<br/>samples = 4<br/>value = [1.593, 8.593]<br/>class = l>, fillcolor="#5eafea"] ;
18 -> 20 ;
21 [label=<gini = 0.0<br/>samples = 2<br/>value = [1.062, 0.0]<br/>class = C>, fillcolor="#e58139"] ;
20 -> 21 ;
22 [label=<bmi &le; 2.5<br/>gini = 0.11<br/>samples = 2<br/>value = [0.531, 8.593]<br/>class = l>, fillcolor="#45a3e7"] ;
20 -> 22 ;
23 [label=<gini = 0.0<br/>samples = 1<br/>value = [0.0, 8.593]<br/>class = l>, fillcolor="#399de5"] ;
22 -> 23 ;
24 [label=<gini = -0.0<br/>samples = 1<br/>value = [0.531, 0.0]<br/>class = C>, fillcolor="#e58139"] ;
22 -> 24 ;
25 [label=<avg_glucose_level &le; 93.54<br/>gini = 0.141<br/>samples = 7<br/>value = [2.124, 25.778]<br/>class = l>, fillcolor="#49a5e7"] ;
17 -> 25 ;
26 [label=<avg_glucose_level &le; 58.19<br/>gini = 0.318<br/>samples = 5<br/>value = [2.124, 8.593]<br/>class = l>, fillcolor="#6ab5eb"] ;
25 -> 26 ;
27 [label=<gini = 0.0<br/>samples = 1<br/>value = [0.0, 8.593]<br/>class = l>, fillcolor="#399de5"] ;
26 -> 27 ;
28 [label=<gini = -0.0<br/>samples = 4<br/>value = [2.124, 0.0]<br/>class = C>, fillcolor="#e58139"] ;
26 -> 28 ;
29 [label=<gini = -0.0<br/>samples = 2<br/>value = [0.0, 17.185]<br/>class = l>, fillcolor="#399de5"] ;
25 -> 29 ;
30 [label=<Residence_type &le; 0.5<br/>gini = 0.0<br/>samples = 4<br/>value = [2.124, 0.0]<br/>class = C>, fillcolor="#e58139"] ;
16 -> 30 ;
31 [label=<gini = 0.0<br/>samples = 1<br/>value = [0.531, 0.0]<br/>class = C>, fillcolor="#e58139"] ;
30 -> 31 ;
32 [label=<gini = 0.0<br/>samples = 3<br/>value = [1.593, 0.0]<br/>class = C>, fillcolor="#e58139"] ;
30 -> 32 ;
33 [label=<hypertension &le; 0.5<br/>gini = 0.0<br/>samples = 17<br/>value = [9.025, 0.0]<br/>class = C>, fillcolor="#e58139"] ;
13 -> 33 ;
34 [label=<gini = 0.0<br/>samples = 16<br/>value = [8.494, 0.0]<br/>class = C>, fillcolor="#e58139"] ;
33 -> 34 ;
35 [label=<gini = 0.0<br/>samples = 1<br/>value = [0.531, 0.0]<br/>class = C>, fillcolor="#e58139"] ;
33 -> 35 ;
36 [label=<gini = -0.0<br/>samples = 231<br/>value = [122.636, 0.0]<br/>class = C>, fillcolor="#e58139"] ;
10 -> 36 ;
37 [label=<bmi &le; 4.5<br/>gini = 0.466<br/>samples = 602<br/>value = [308.449, 180.444]<br/>class = C>, fillcolor="#f4cbad"] ;
1 -> 37 ;
38 [label=<bmi &le; 3.5<br/>gini = 0.432<br/>samples = 540<br/>value = [278.719, 128.889]<br/>class = C>, fillcolor="#f1bb95"] ;
37 -> 38 ;
39 [label=<age &le; 54.5<br/>gini = 0.461<br/>samples = 446<br/>value = [228.815, 128.889]<br/>class = C>, fillcolor="#f4c8a9"] ;
38 -> 39 ;
40 [label=<bmi &le; 1.5<br/>gini = 0.481<br/>samples = 374<br/>value = [190.59, 128.889]<br/>class = C>, fillcolor="#f7d6bf"] ;
39 -> 40 ;
41 [label=<avg_glucose_level &le; 74.135<br/>gini = 0.262<br/>samples = 89<br/>value = [46.719, 8.593]<br/>class = C>, fillcolor="#ea985d"] ;
40 -> 41 ;
42 [label=<avg_glucose_level &le; 73.69<br/>gini = 0.497<br/>samples = 20<br/>value = [10.087, 8.593]<br/>class = C>, fillcolor="#fbece2"] ;
41 -> 42 ;
43 [label=<gini = 0.0<br/>samples = 19<br/>value = [10.087, 0.0]<br/>class = C>, fillcolor="#e58139"] ;
42 -> 43 ;
44 [label=<gini = 0.0<br/>samples = 1<br/>value = [0.0, 8.593]<br/>class = l>, fillcolor="#399de5"] ;
42 -> 44 ;
45 [label=<gini = 0.0<br/>samples = 69<br/>value = [36.632, 0.0]<br/>class = C>, fillcolor="#e58139"] ;
41 -> 45 ;
46 [label=<Residence_type &le; 0.5<br/>gini = 0.496<br/>samples = 285<br/>value = [143.872, 120.296]<br/>class = C>, fillcolor="#fbeadf"] ;
40 -> 46 ;
47 [label=<avg_glucose_level &le; 105.19<br/>gini = 0.491<br/>samples = 134<br/>value = [65.831, 85.926]<br/>class = l>, fillcolor="#d1e8f9"] ;
46 -> 47 ;
48 [label=<avg_glucose_level &le; 93.635<br/>gini = 0.451<br/>samples = 85<br/>value = [40.348, 77.333]<br/>class = l>, fillcolor="#a0d0f3"] ;
47 -> 48 ;
49 [label=<age &le; 53.5<br/>gini = 0.493<br/>samples = 65<br/>value = [32.915, 25.778]<br/>class = C>, fillcolor="#f9e4d4"] ;
48 -> 49 ;
50 [label=<avg_glucose_level &le; 73.33<br/>gini = 0.458<br/>samples = 61<br/>value = [31.323, 17.185]<br/>class = C>, fillcolor="#f3c6a6"] ;
49 -> 50 ;
51 [label=<avg_glucose_level &le; 64.115<br/>gini = 0.477<br/>samples = 23<br/>value = [11.149, 17.185]<br/>class = l>, fillcolor="#b9ddf6"] ;
50 -> 51 ;
52 [label=<gini = 0.0<br/>samples = 11<br/>value = [5.84, 0.0]<br/>class = C>, fillcolor="#e58139"] ;
51 -> 52 ;
53 [label=<work_type &le; 3.5<br/>gini = 0.361<br/>samples = 12<br/>value = [5.309, 17.185]<br/>class = l>, fillcolor="#76bbed"] ;
51 -> 53 ;
54 [label=<age &le; 50.5<br/>gini = 0.232<br/>samples = 7<br/>value = [2.654, 17.185]<br/>class = l>, fillcolor="#58ace9"] ;
53 -> 54 ;
55 [label=<smoking_status &le; 1.5<br/>gini = 0.155<br/>samples = 5<br/>value = [1.593, 17.185]<br/>class = l>, fillcolor="#4ba6e7"] ;
54 -> 55 ;
56 [label=<hypertension &le; 0.5<br/>gini = 0.11<br/>samples = 4<br/>value = [1.062, 17.185]<br/>class = l>, fillcolor="#45a3e7"] ;
55 -> 56 ;
57 [label=<gender &le; 0.5<br/>gini = 0.196<br/>samples = 3<br/>value = [1.062, 8.593]<br/>class = l>, fillcolor="#51a9e8"] ;
56 -> 57 ;
58 [label=<gini = 0.0<br/>samples = 1<br/>value = [0.0, 8.593]<br/>class = l>, fillcolor="#399de5"] ;
57 -> 58 ;
59 [label=<gini = -0.0<br/>samples = 2<br/>value = [1.062, 0.0]<br/>class = C>, fillcolor="#e58139"] ;
57 -> 59 ;
60 [label=<gini = 0.0<br/>samples = 1<br/>value = [0.0, 8.593]<br/>class = l>, fillcolor="#399de5"] ;
56 -> 60 ;
61 [label=<gini = -0.0<br/>samples = 1<br/>value = [0.531, 0.0]<br/>class = C>, fillcolor="#e58139"] ;
55 -> 61 ;
62 [label=<gini = -0.0<br/>samples = 2<br/>value = [1.062, 0.0]<br/>class = C>, fillcolor="#e58139"] ;
54 -> 62 ;
63 [label=<gini = -0.0<br/>samples = 5<br/>value = [2.654, 0.0]<br/>class = C>, fillcolor="#e58139"] ;
53 -> 63 ;
64 [label=<bmi &le; 2.5<br/>gini = 0.0<br/>samples = 38<br/>value = [20.174, 0.0]<br/>class = C>, fillcolor="#e58139"] ;
50 -> 64 ;
65 [label=<gini = 0.0<br/>samples = 13<br/>value = [6.902, 0.0]<br/>class = C>, fillcolor="#e58139"] ;
64 -> 65 ;
66 [label=<gini = 0.0<br/>samples = 25<br/>value = [13.272, 0.0]<br/>class = C>, fillcolor="#e58139"] ;
64 -> 66 ;
67 [label=<smoking_status &le; 1.0<br/>gini = 0.264<br/>samples = 4<br/>value = [1.593, 8.593]<br/>class = l>, fillcolor="#5eafea"] ;
49 -> 67 ;
68 [label=<gini = -0.0<br/>samples = 3<br/>value = [1.593, 0.0]<br/>class = C>, fillcolor="#e58139"] ;
67 -> 68 ;
69 [label=<gini = 0.0<br/>samples = 1<br/>value = [0.0, 8.593]<br/>class = l>, fillcolor="#399de5"] ;
67 -> 69 ;
70 [label=<hypertension &le; 0.5<br/>gini = 0.22<br/>samples = 20<br/>value = [7.432, 51.556]<br/>class = l>, fillcolor="#56abe9"] ;
48 -> 70 ;
71 [label=<heart_disease &le; 0.5<br/>gini = 0.169<br/>samples = 16<br/>value = [5.309, 51.556]<br/>class = l>, fillcolor="#4da7e8"] ;
70 -> 71 ;
72 [label=<age &le; 52.5<br/>gini = 0.141<br/>samples = 14<br/>value = [4.247, 51.556]<br/>class = l>, fillcolor="#49a5e7"] ;
71 -> 72 ;
73 [label=<age &le; 49.5<br/>gini = 0.069<br/>samples = 8<br/>value = [1.593, 42.963]<br/>class = l>, fillcolor="#40a1e6"] ;
72 -> 73 ;
74 [label=<bmi &le; 2.5<br/>gini = 0.155<br/>samples = 5<br/>value = [1.593, 17.185]<br/>class = l>, fillcolor="#4ba6e7"] ;
73 -> 74 ;
75 [label=<gini = 0.0<br/>samples = 1<br/>value = [0.531, 0.0]<br/>class = C>, fillcolor="#e58139"] ;
74 -> 75 ;
76 [label=<smoking_status &le; 0.5<br/>gini = 0.11<br/>samples = 4<br/>value = [1.062, 17.185]<br/>class = l>, fillcolor="#45a3e7"] ;
74 -> 76 ;
77 [label=<gini = 0.0<br/>samples = 1<br/>value = [0.531, 0.0]<br/>class = C>, fillcolor="#e58139"] ;
76 -> 77 ;
78 [label=<avg_glucose_level &le; 98.83<br/>gini = 0.058<br/>samples = 3<br/>value = [0.531, 17.185]<br/>class = l>, fillcolor="#3fa0e6"] ;
76 -> 78 ;
79 [label=<gini = 0.0<br/>samples = 1<br/>value = [0.0, 8.593]<br/>class = l>, fillcolor="#399de5"] ;
78 -> 79 ;
80 [label=<gender &le; 0.5<br/>gini = 0.11<br/>samples = 2<br/>value = [0.531, 8.593]<br/>class = l>, fillcolor="#45a3e7"] ;
78 -> 80 ;
81 [label=<gini = 0.0<br/>samples = 1<br/>value = [0.0, 8.593]<br/>class = l>, fillcolor="#399de5"] ;
80 -> 81 ;
82 [label=<gini = -0.0<br/>samples = 1<br/>value = [0.531, 0.0]<br/>class = C>, fillcolor="#e58139"] ;
80 -> 82 ;
83 [label=<gini = 0.0<br/>samples = 3<br/>value = [0.0, 25.778]<br/>class = l>, fillcolor="#399de5"] ;
73 -> 83 ;
84 [label=<gender &le; 0.5<br/>gini = 0.361<br/>samples = 6<br/>value = [2.654, 8.593]<br/>class = l>, fillcolor="#76bbed"] ;
72 -> 84 ;
85 [label=<age &le; 53.5<br/>gini = 0.11<br/>samples = 2<br/>value = [0.531, 8.593]<br/>class = l>, fillcolor="#45a3e7"] ;
84 -> 85 ;
86 [label=<gini = 0.0<br/>samples = 1<br/>value = [0.531, 0.0]<br/>class = C>, fillcolor="#e58139"] ;
85 -> 86 ;
87 [label=<gini = 0.0<br/>samples = 1<br/>value = [0.0, 8.593]<br/>class = l>, fillcolor="#399de5"] ;
85 -> 87 ;
88 [label=<gini = -0.0<br/>samples = 4<br/>value = [2.124, 0.0]<br/>class = C>, fillcolor="#e58139"] ;
84 -> 88 ;
89 [label=<gender &le; 0.5<br/>gini = 0.0<br/>samples = 2<br/>value = [1.062, 0.0]<br/>class = C>, fillcolor="#e58139"] ;
71 -> 89 ;
90 [label=<gini = 0.0<br/>samples = 1<br/>value = [0.531, 0.0]<br/>class = C>, fillcolor="#e58139"] ;
89 -> 90 ;
91 [label=<gini = 0.0<br/>samples = 1<br/>value = [0.531, 0.0]<br/>class = C>, fillcolor="#e58139"] ;
89 -> 91 ;
92 [label=<work_type &le; 3.5<br/>gini = 0.0<br/>samples = 4<br/>value = [2.124, 0.0]<br/>class = C>, fillcolor="#e58139"] ;
70 -> 92 ;
93 [label=<gini = 0.0<br/>samples = 1<br/>value = [0.531, 0.0]<br/>class = C>, fillcolor="#e58139"] ;
92 -> 93 ;
94 [label=<gini = 0.0<br/>samples = 3<br/>value = [1.593, 0.0]<br/>class = C>, fillcolor="#e58139"] ;
92 -> 94 ;
95 [label=<hypertension &le; 0.5<br/>gini = 0.377<br/>samples = 49<br/>value = [25.483, 8.593]<br/>class = C>, fillcolor="#eeab7c"] ;
47 -> 95 ;
96 [label=<age &le; 46.0<br/>gini = 0.0<br/>samples = 38<br/>value = [20.174, 0.0]<br/>class = C>, fillcolor="#e58139"] ;
95 -> 96 ;
97 [label=<gini = 0.0<br/>samples = 2<br/>value = [1.062, 0.0]<br/>class = C>, fillcolor="#e58139"] ;
96 -> 97 ;
98 [label=<gini = 0.0<br/>samples = 36<br/>value = [19.112, 0.0]<br/>class = C>, fillcolor="#e58139"] ;
96 -> 98 ;
99 [label=<age &le; 50.5<br/>gini = 0.472<br/>samples = 11<br/>value = [5.309, 8.593]<br/>class = l>, fillcolor="#b3daf5"] ;
95 -> 99 ;
100 [label=<age &le; 49.5<br/>gini = 0.196<br/>samples = 3<br/>value = [1.062, 8.593]<br/>class = l>, fillcolor="#51a9e8"] ;
99 -> 100 ;
101 [label=<gini = -0.0<br/>samples = 2<br/>value = [1.062, 0.0]<br/>class = C>, fillcolor="#e58139"] ;
100 -> 101 ;
102 [label=<gini = 0.0<br/>samples = 1<br/>value = [0.0, 8.593]<br/>class = l>, fillcolor="#399de5"] ;
100 -> 102 ;
103 [label=<gini = -0.0<br/>samples = 8<br/>value = [4.247, 0.0]<br/>class = C>, fillcolor="#e58139"] ;
99 -> 103 ;
104 [label=<avg_glucose_level &le; 166.085<br/>gini = 0.425<br/>samples = 151<br/>value = [78.041, 34.37]<br/>class = C>, fillcolor="#f0b890"] ;
46 -> 104 ;
105 [label=<age &le; 48.5<br/>gini = 0.318<br/>samples = 133<br/>value = [69.547, 17.185]<br/>class = C>, fillcolor="#eba06a"] ;
104 -> 105 ;
106 [label=<avg_glucose_level &le; 84.91<br/>gini = 0.49<br/>samples = 45<br/>value = [22.828, 17.185]<br/>class = C>, fillcolor="#f9e0ce"] ;
105 -> 106 ;
107 [label=<avg_glucose_level &le; 78.085<br/>gini = 0.477<br/>samples = 23<br/>value = [11.149, 17.185]<br/>class = l>, fillcolor="#b9ddf6"] ;
106 -> 107 ;
108 [label=<gini = -0.0<br/>samples = 18<br/>value = [9.556, 0.0]<br/>class = C>, fillcolor="#e58139"] ;
107 -> 108 ;
109 [label=<heart_disease &le; 0.5<br/>gini = 0.155<br/>samples = 5<br/>value = [1.593, 17.185]<br/>class = l>, fillcolor="#4ba6e7"] ;
107 -> 109 ;
110 [label=<hypertension &le; 0.5<br/>gini = 0.11<br/>samples = 4<br/>value = [1.062, 17.185]<br/>class = l>, fillcolor="#45a3e7"] ;
109 -> 110 ;
111 [label=<age &le; 45.5<br/>gini = 0.058<br/>samples = 3<br/>value = [0.531, 17.185]<br/>class = l>, fillcolor="#3fa0e6"] ;
110 -> 111 ;
112 [label=<gini = 0.0<br/>samples = 1<br/>value = [0.531, 0.0]<br/>class = C>, fillcolor="#e58139"] ;
111 -> 112 ;
113 [label=<gini = 0.0<br/>samples = 2<br/>value = [0.0, 17.185]<br/>class = l>, fillcolor="#399de5"] ;
111 -> 113 ;
114 [label=<gini = -0.0<br/>samples = 1<br/>value = [0.531, 0.0]<br/>class = C>, fillcolor="#e58139"] ;
110 -> 114 ;
115 [label=<gini = -0.0<br/>samples = 1<br/>value = [0.531, 0.0]<br/>class = C>, fillcolor="#e58139"] ;
109 -> 115 ;
116 [label=<age &le; 45.5<br/>gini = 0.0<br/>samples = 22<br/>value = [11.68, 0.0]<br/>class = C>, fillcolor="#e58139"] ;
106 -> 116 ;
117 [label=<gini = 0.0<br/>samples = 6<br/>value = [3.185, 0.0]<br/>class = C>, fillcolor="#e58139"] ;
116 -> 117 ;
118 [label=<gini = 0.0<br/>samples = 16<br/>value = [8.494, 0.0]<br/>class = C>, fillcolor="#e58139"] ;
116 -> 118 ;
119 [label=<age &le; 49.5<br/>gini = 0.0<br/>samples = 88<br/>value = [46.719, 0.0]<br/>class = C>, fillcolor="#e58139"] ;
105 -> 119 ;
120 [label=<gini = 0.0<br/>samples = 10<br/>value = [5.309, 0.0]<br/>class = C>, fillcolor="#e58139"] ;
119 -> 120 ;
121 [label=<gini = 0.0<br/>samples = 78<br/>value = [41.41, 0.0]<br/>class = C>, fillcolor="#e58139"] ;
119 -> 121 ;
122 [label=<avg_glucose_level &le; 182.965<br/>gini = 0.443<br/>samples = 18<br/>value = [8.494, 17.185]<br/>class = l>, fillcolor="#9bcdf2"] ;
104 -> 122 ;
123 [label=<gender &le; 0.5<br/>gini = 0.11<br/>samples = 4<br/>value = [1.062, 17.185]<br/>class = l>, fillcolor="#45a3e7"] ;
122 -> 123 ;
124 [label=<gini = 0.0<br/>samples = 1<br/>value = [0.531, 0.0]<br/>class = C>, fillcolor="#e58139"] ;
123 -> 124 ;
125 [label=<bmi &le; 2.5<br/>gini = 0.058<br/>samples = 3<br/>value = [0.531, 17.185]<br/>class = l>, fillcolor="#3fa0e6"] ;
123 -> 125 ;
126 [label=<gini = 0.0<br/>samples = 1<br/>value = [0.0, 8.593]<br/>class = l>, fillcolor="#399de5"] ;
125 -> 126 ;
127 [label=<hypertension &le; 0.5<br/>gini = 0.11<br/>samples = 2<br/>value = [0.531, 8.593]<br/>class = l>, fillcolor="#45a3e7"] ;
125 -> 127 ;
128 [label=<gini = 0.0<br/>samples = 1<br/>value = [0.0, 8.593]<br/>class = l>, fillcolor="#399de5"] ;
127 -> 128 ;
129 [label=<gini = -0.0<br/>samples = 1<br/>value = [0.531, 0.0]<br/>class = C>, fillcolor="#e58139"] ;
127 -> 129 ;
130 [label=<gini = -0.0<br/>samples = 14<br/>value = [7.432, 0.0]<br/>class = C>, fillcolor="#e58139"] ;
122 -> 130 ;
131 [label=<gini = 0.0<br/>samples = 72<br/>value = [38.224, 0.0]<br/>class = C>, fillcolor="#e58139"] ;
39 -> 131 ;
132 [label=<gini = 0.0<br/>samples = 94<br/>value = [49.904, 0.0]<br/>class = C>, fillcolor="#e58139"] ;
38 -> 132 ;
133 [label=<Residence_type &le; 0.5<br/>gini = 0.464<br/>samples = 62<br/>value = [29.73, 51.556]<br/>class = l>, fillcolor="#abd6f4"] ;
37 -> 133 ;
134 [label=<smoking_status &le; 1.5<br/>gini = 0.477<br/>samples = 26<br/>value = [13.272, 8.593]<br/>class = C>, fillcolor="#f6d3b9"] ;
133 -> 134 ;
135 [label=<gini = 0.0<br/>samples = 19<br/>value = [10.087, 0.0]<br/>class = C>, fillcolor="#e58139"] ;
134 -> 135 ;
136 [label=<avg_glucose_level &le; 149.115<br/>gini = 0.395<br/>samples = 7<br/>value = [3.185, 8.593]<br/>class = l>, fillcolor="#82c1ef"] ;
134 -> 136 ;
137 [label=<gini = -0.0<br/>samples = 5<br/>value = [2.654, 0.0]<br/>class = C>, fillcolor="#e58139"] ;
136 -> 137 ;
138 [label=<avg_glucose_level &le; 207.21<br/>gini = 0.11<br/>samples = 2<br/>value = [0.531, 8.593]<br/>class = l>, fillcolor="#45a3e7"] ;
136 -> 138 ;
139 [label=<gini = 0.0<br/>samples = 1<br/>value = [0.0, 8.593]<br/>class = l>, fillcolor="#399de5"] ;
138 -> 139 ;
140 [label=<gini = -0.0<br/>samples = 1<br/>value = [0.531, 0.0]<br/>class = C>, fillcolor="#e58139"] ;
138 -> 140 ;
141 [label=<smoking_status &le; 1.5<br/>gini = 0.401<br/>samples = 36<br/>value = [16.458, 42.963]<br/>class = l>, fillcolor="#85c3ef"] ;
133 -> 141 ;
142 [label=<age &le; 46.0<br/>gini = 0.353<br/>samples = 29<br/>value = [12.741, 42.963]<br/>class = l>, fillcolor="#74baed"] ;
141 -> 142 ;
143 [label=<gini = 0.0<br/>samples = 3<br/>value = [1.593, 0.0]<br/>class = C>, fillcolor="#e58139"] ;
142 -> 143 ;
144 [label=<avg_glucose_level &le; 61.685<br/>gini = 0.327<br/>samples = 26<br/>value = [11.149, 42.963]<br/>class = l>, fillcolor="#6cb6ec"] ;
142 -> 144 ;
145 [label=<gini = 0.0<br/>samples = 2<br/>value = [1.062, 0.0]<br/>class = C>, fillcolor="#e58139"] ;
144 -> 145 ;
146 [label=<hypertension &le; 0.5<br/>gini = 0.308<br/>samples = 24<br/>value = [10.087, 42.963]<br/>class = l>, fillcolor="#67b4eb"] ;
144 -> 146 ;
147 [label=<avg_glucose_level &le; 188.665<br/>gini = 0.384<br/>samples = 20<br/>value = [9.025, 25.778]<br/>class = l>, fillcolor="#7ebfee"] ;
146 -> 147 ;
148 [label=<avg_glucose_level &le; 164.16<br/>gini = 0.283<br/>samples = 13<br/>value = [5.309, 25.778]<br/>class = l>, fillcolor="#62b1ea"] ;
147 -> 148 ;
149 [label=<avg_glucose_level &le; 88.445<br/>gini = 0.361<br/>samples = 12<br/>value = [5.309, 17.185]<br/>class = l>, fillcolor="#76bbed"] ;
148 -> 149 ;
150 [label=<age &le; 54.0<br/>gini = 0.196<br/>samples = 6<br/>value = [2.124, 17.185]<br/>class = l>, fillcolor="#51a9e8"] ;
149 -> 150 ;
151 [label=<age &le; 51.0<br/>gini = 0.155<br/>samples = 5<br/>value = [1.593, 17.185]<br/>class = l>, fillcolor="#4ba6e7"] ;
150 -> 151 ;
152 [label=<smoking_status &le; 0.5<br/>gini = 0.264<br/>samples = 4<br/>value = [1.593, 8.593]<br/>class = l>, fillcolor="#5eafea"] ;
151 -> 152 ;
153 [label=<gini = -0.0<br/>samples = 3<br/>value = [1.593, 0.0]<br/>class = C>, fillcolor="#e58139"] ;
152 -> 153 ;
154 [label=<gini = 0.0<br/>samples = 1<br/>value = [0.0, 8.593]<br/>class = l>, fillcolor="#399de5"] ;
152 -> 154 ;
155 [label=<gini = 0.0<br/>samples = 1<br/>value = [0.0, 8.593]<br/>class = l>, fillcolor="#399de5"] ;
151 -> 155 ;
156 [label=<gini = -0.0<br/>samples = 1<br/>value = [0.531, 0.0]<br/>class = C>, fillcolor="#e58139"] ;
150 -> 156 ;
157 [label=<gini = -0.0<br/>samples = 6<br/>value = [3.185, 0.0]<br/>class = C>, fillcolor="#e58139"] ;
149 -> 157 ;
158 [label=<gini = -0.0<br/>samples = 1<br/>value = [0.0, 8.593]<br/>class = l>, fillcolor="#399de5"] ;
148 -> 158 ;
159 [label=<work_type &le; 3.5<br/>gini = 0.0<br/>samples = 7<br/>value = [3.716, 0.0]<br/>class = C>, fillcolor="#e58139"] ;
147 -> 159 ;
160 [label=<gini = 0.0<br/>samples = 3<br/>value = [1.593, 0.0]<br/>class = C>, fillcolor="#e58139"] ;
159 -> 160 ;
161 [label=<gini = 0.0<br/>samples = 4<br/>value = [2.124, 0.0]<br/>class = C>, fillcolor="#e58139"] ;
159 -> 161 ;
162 [label=<age &le; 50.0<br/>gini = 0.11<br/>samples = 4<br/>value = [1.062, 17.185]<br/>class = l>, fillcolor="#45a3e7"] ;
146 -> 162 ;
163 [label=<gini = 0.0<br/>samples = 2<br/>value = [1.062, 0.0]<br/>class = C>, fillcolor="#e58139"] ;
162 -> 163 ;
164 [label=<gini = 0.0<br/>samples = 2<br/>value = [0.0, 17.185]<br/>class = l>, fillcolor="#399de5"] ;
162 -> 164 ;
165 [label=<work_type &le; 3.5<br/>gini = 0.0<br/>samples = 7<br/>value = [3.716, 0.0]<br/>class = C>, fillcolor="#e58139"] ;
141 -> 165 ;
166 [label=<gini = 0.0<br/>samples = 5<br/>value = [2.654, 0.0]<br/>class = C>, fillcolor="#e58139"] ;
165 -> 166 ;
167 [label=<gini = 0.0<br/>samples = 2<br/>value = [1.062, 0.0]<br/>class = C>, fillcolor="#e58139"] ;
165 -> 167 ;
168 [label=<age &le; 67.5<br/>gini = 0.413<br/>samples = 1040<br/>value = [479.927, 1168.593]<br/>class = l>, fillcolor="#8ac5f0"] ;
0 -> 168 [labeldistance=2.5, labelangle=-45, headlabel="False"] ;
169 [label=<avg_glucose_level &le; 112.165<br/>gini = 0.495<br/>samples = 487<br/>value = [240.494, 292.148]<br/>class = l>, fillcolor="#dceefa"] ;
168 -> 169 ;
170 [label=<age &le; 61.5<br/>gini = 0.471<br/>samples = 330<br/>value = [168.824, 103.111]<br/>class = C>, fillcolor="#f5ceb2"] ;
169 -> 170 ;
171 [label=<bmi &le; 1.5<br/>gini = 0.5<br/>samples = 165<br/>value = [82.288, 85.926]<br/>class = l>, fillcolor="#f7fbfe"] ;
170 -> 171 ;
172 [label=<gini = 0.0<br/>samples = 22<br/>value = [11.68, 0.0]<br/>class = C>, fillcolor="#e58139"] ;
171 -> 172 ;
173 [label=<bmi &le; 4.5<br/>gini = 0.495<br/>samples = 143<br/>value = [70.609, 85.926]<br/>class = l>, fillcolor="#dceefa"] ;
171 -> 173 ;
174 [label=<bmi &le; 3.5<br/>gini = 0.489<br/>samples = 130<br/>value = [63.707, 85.926]<br/>class = l>, fillcolor="#cce6f8"] ;
173 -> 174 ;
175 [label=<hypertension &le; 0.5<br/>gini = 0.5<br/>samples = 107<br/>value = [53.62, 51.556]<br/>class = C>, fillcolor="#fefaf7"] ;
174 -> 175 ;
176 [label=<smoking_status &le; 0.5<br/>gini = 0.455<br/>samples = 93<br/>value = [47.78, 25.778]<br/>class = C>, fillcolor="#f3c5a4"] ;
175 -> 176 ;
177 [label=<gini = 0.0<br/>samples = 44<br/>value = [23.359, 0.0]<br/>class = C>, fillcolor="#e58139"] ;
176 -> 177 ;
178 [label=<work_type &le; 3.5<br/>gini = 0.5<br/>samples = 49<br/>value = [24.421, 25.778]<br/>class = l>, fillcolor="#f5fafe"] ;
176 -> 178 ;
179 [label=<age &le; 60.5<br/>gini = 0.459<br/>samples = 30<br/>value = [14.334, 25.778]<br/>class = l>, fillcolor="#a7d3f3"] ;
178 -> 179 ;
180 [label=<avg_glucose_level &le; 85.08<br/>gini = 0.422<br/>samples = 24<br/>value = [11.149, 25.778]<br/>class = l>, fillcolor="#8fc7f0"] ;
179 -> 180 ;
181 [label=<avg_glucose_level &le; 60.105<br/>gini = 0.499<br/>samples = 16<br/>value = [7.963, 8.593]<br/>class = l>, fillcolor="#f1f8fd"] ;
180 -> 181 ;
182 [label=<avg_glucose_level &le; 58.875<br/>gini = 0.264<br/>samples = 4<br/>value = [1.593, 8.593]<br/>class = l>, fillcolor="#5eafea"] ;
181 -> 182 ;
183 [label=<gini = -0.0<br/>samples = 3<br/>value = [1.593, 0.0]<br/>class = C>, fillcolor="#e58139"] ;
182 -> 183 ;
184 [label=<gini = 0.0<br/>samples = 1<br/>value = [0.0, 8.593]<br/>class = l>, fillcolor="#399de5"] ;
182 -> 184 ;
185 [label=<gini = -0.0<br/>samples = 12<br/>value = [6.371, 0.0]<br/>class = C>, fillcolor="#e58139"] ;
181 -> 185 ;
186 [label=<Residence_type &le; 0.5<br/>gini = 0.264<br/>samples = 8<br/>value = [3.185, 17.185]<br/>class = l>, fillcolor="#5eafea"] ;
180 -> 186 ;
187 [label=<gini = 0.0<br/>samples = 3<br/>value = [1.593, 0.0]<br/>class = C>, fillcolor="#e58139"] ;
186 -> 187 ;
188 [label=<age &le; 58.5<br/>gini = 0.155<br/>samples = 5<br/>value = [1.593, 17.185]<br/>class = l>, fillcolor="#4ba6e7"] ;
186 -> 188 ;
189 [label=<gini = 0.0<br/>samples = 2<br/>value = [1.062, 0.0]<br/>class = C>, fillcolor="#e58139"] ;
188 -> 189 ;
190 [label=<gender &le; 0.5<br/>gini = 0.058<br/>samples = 3<br/>value = [0.531, 17.185]<br/>class = l>, fillcolor="#3fa0e6"] ;
188 -> 190 ;
191 [label=<smoking_status &le; 1.5<br/>gini = 0.11<br/>samples = 2<br/>value = [0.531, 8.593]<br/>class = l>, fillcolor="#45a3e7"] ;
190 -> 191 ;
192 [label=<gini = 0.0<br/>samples = 1<br/>value = [0.0, 8.593]<br/>class = l>, fillcolor="#399de5"] ;
191 -> 192 ;
193 [label=<gini = -0.0<br/>samples = 1<br/>value = [0.531, 0.0]<br/>class = C>, fillcolor="#e58139"] ;
191 -> 193 ;
194 [label=<gini = 0.0<br/>samples = 1<br/>value = [0.0, 8.593]<br/>class = l>, fillcolor="#399de5"] ;
190 -> 194 ;
195 [label=<Residence_type &le; 0.5<br/>gini = 0.0<br/>samples = 6<br/>value = [3.185, 0.0]<br/>class = C>, fillcolor="#e58139"] ;
179 -> 195 ;
196 [label=<gini = 0.0<br/>samples = 3<br/>value = [1.593, 0.0]<br/>class = C>, fillcolor="#e58139"] ;
195 -> 196 ;
197 [label=<gini = 0.0<br/>samples = 3<br/>value = [1.593, 0.0]<br/>class = C>, fillcolor="#e58139"] ;
195 -> 197 ;
198 [label=<bmi &le; 2.5<br/>gini = 0.0<br/>samples = 19<br/>value = [10.087, 0.0]<br/>class = C>, fillcolor="#e58139"] ;
178 -> 198 ;
199 [label=<gini = 0.0<br/>samples = 13<br/>value = [6.902, 0.0]<br/>class = C>, fillcolor="#e58139"] ;
198 -> 199 ;
200 [label=<gini = 0.0<br/>samples = 6<br/>value = [3.185, 0.0]<br/>class = C>, fillcolor="#e58139"] ;
198 -> 200 ;
201 [label=<work_type &le; 3.5<br/>gini = 0.301<br/>samples = 14<br/>value = [5.84, 25.778]<br/>class = l>, fillcolor="#66b3eb"] ;
175 -> 201 ;
202 [label=<gini = -0.0<br/>samples = 8<br/>value = [4.247, 0.0]<br/>class = C>, fillcolor="#e58139"] ;
201 -> 202 ;
203 [label=<heart_disease &le; 0.5<br/>gini = 0.11<br/>samples = 6<br/>value = [1.593, 25.778]<br/>class = l>, fillcolor="#45a3e7"] ;
201 -> 203 ;
204 [label=<avg_glucose_level &le; 63.465<br/>gini = 0.04<br/>samples = 4<br/>value = [0.531, 25.778]<br/>class = l>, fillcolor="#3d9fe6"] ;
203 -> 204 ;
205 [label=<gini = 0.0<br/>samples = 1<br/>value = [0.531, 0.0]<br/>class = C>, fillcolor="#e58139"] ;
204 -> 205 ;
206 [label=<smoking_status &le; 0.5<br/>gini = 0.0<br/>samples = 3<br/>value = [0.0, 25.778]<br/>class = l>, fillcolor="#399de5"] ;
204 -> 206 ;
207 [label=<gini = 0.0<br/>samples = 1<br/>value = [0.0, 8.593]<br/>class = l>, fillcolor="#399de5"] ;
206 -> 207 ;
208 [label=<gini = 0.0<br/>samples = 2<br/>value = [0.0, 17.185]<br/>class = l>, fillcolor="#399de5"] ;
206 -> 208 ;
209 [label=<gini = -0.0<br/>samples = 2<br/>value = [1.062, 0.0]<br/>class = C>, fillcolor="#e58139"] ;
203 -> 209 ;
210 [label=<Residence_type &le; 0.5<br/>gini = 0.351<br/>samples = 23<br/>value = [10.087, 34.37]<br/>class = l>, fillcolor="#73baed"] ;
174 -> 210 ;
211 [label=<gini = -0.0<br/>samples = 12<br/>value = [6.371, 0.0]<br/>class = C>, fillcolor="#e58139"] ;
210 -> 211 ;
212 [label=<hypertension &le; 0.5<br/>gini = 0.176<br/>samples = 11<br/>value = [3.716, 34.37]<br/>class = l>, fillcolor="#4ea8e8"] ;
210 -> 212 ;
213 [label=<avg_glucose_level &le; 67.24<br/>gini = 0.133<br/>samples = 9<br/>value = [2.654, 34.37]<br/>class = l>, fillcolor="#48a5e7"] ;
212 -> 213 ;
214 [label=<gini = 0.0<br/>samples = 1<br/>value = [0.531, 0.0]<br/>class = C>, fillcolor="#e58139"] ;
213 -> 214 ;
215 [label=<gender &le; 0.5<br/>gini = 0.11<br/>samples = 8<br/>value = [2.124, 34.37]<br/>class = l>, fillcolor="#45a3e7"] ;
213 -> 215 ;
216 [label=<heart_disease &le; 0.5<br/>gini = 0.264<br/>samples = 4<br/>value = [1.593, 8.593]<br/>class = l>, fillcolor="#5eafea"] ;
215 -> 216 ;
217 [label=<gini = -0.0<br/>samples = 3<br/>value = [1.593, 0.0]<br/>class = C>, fillcolor="#e58139"] ;
216 -> 217 ;
218 [label=<gini = 0.0<br/>samples = 1<br/>value = [0.0, 8.593]<br/>class = l>, fillcolor="#399de5"] ;
216 -> 218 ;
219 [label=<avg_glucose_level &le; 89.74<br/>gini = 0.04<br/>samples = 4<br/>value = [0.531, 25.778]<br/>class = l>, fillcolor="#3d9fe6"] ;
215 -> 219 ;
220 [label=<gini = 0.0<br/>samples = 2<br/>value = [0.0, 17.185]<br/>class = l>, fillcolor="#399de5"] ;
219 -> 220 ;
221 [label=<smoking_status &le; 0.5<br/>gini = 0.11<br/>samples = 2<br/>value = [0.531, 8.593]<br/>class = l>, fillcolor="#45a3e7"] ;
219 -> 221 ;
222 [label=<gini = 0.0<br/>samples = 1<br/>value = [0.531, 0.0]<br/>class = C>, fillcolor="#e58139"] ;
221 -> 222 ;
223 [label=<gini = 0.0<br/>samples = 1<br/>value = [0.0, 8.593]<br/>class = l>, fillcolor="#399de5"] ;
221 -> 223 ;
224 [label=<gender &le; 0.5<br/>gini = 0.0<br/>samples = 2<br/>value = [1.062, 0.0]<br/>class = C>, fillcolor="#e58139"] ;
212 -> 224 ;
225 [label=<gini = 0.0<br/>samples = 1<br/>value = [0.531, 0.0]<br/>class = C>, fillcolor="#e58139"] ;
224 -> 225 ;
226 [label=<gini = 0.0<br/>samples = 1<br/>value = [0.531, 0.0]<br/>class = C>, fillcolor="#e58139"] ;
224 -> 226 ;
227 [label=<gini = 0.0<br/>samples = 13<br/>value = [6.902, 0.0]<br/>class = C>, fillcolor="#e58139"] ;
173 -> 227 ;
228 [label=<age &le; 64.5<br/>gini = 0.276<br/>samples = 165<br/>value = [86.535, 17.185]<br/>class = C>, fillcolor="#ea9a60"] ;
170 -> 228 ;
229 [label=<gini = 0.0<br/>samples = 88<br/>value = [46.719, 0.0]<br/>class = C>, fillcolor="#e58139"] ;
228 -> 229 ;
230 [label=<Residence_type &le; 0.5<br/>gini = 0.421<br/>samples = 77<br/>value = [39.817, 17.185]<br/>class = C>, fillcolor="#f0b78e"] ;
228 -> 230 ;
231 [label=<smoking_status &le; 0.5<br/>gini = 0.5<br/>samples = 34<br/>value = [16.989, 17.185]<br/>class = l>, fillcolor="#fdfeff"] ;
230 -> 231 ;
232 [label=<gini = 0.0<br/>samples = 15<br/>value = [7.963, 0.0]<br/>class = C>, fillcolor="#e58139"] ;
231 -> 232 ;
233 [label=<gender &le; 0.5<br/>gini = 0.452<br/>samples = 19<br/>value = [9.025, 17.185]<br/>class = l>, fillcolor="#a1d0f3"] ;
231 -> 233 ;
234 [label=<gini = 0.0<br/>samples = 9<br/>value = [4.778, 0.0]<br/>class = C>, fillcolor="#e58139"] ;
233 -> 234 ;
235 [label=<heart_disease &le; 0.5<br/>gini = 0.318<br/>samples = 10<br/>value = [4.247, 17.185]<br/>class = l>, fillcolor="#6ab5eb"] ;
233 -> 235 ;
236 [label=<avg_glucose_level &le; 103.135<br/>gini = 0.264<br/>samples = 8<br/>value = [3.185, 17.185]<br/>class = l>, fillcolor="#5eafea"] ;
235 -> 236 ;
237 [label=<bmi &le; 2.5<br/>gini = 0.232<br/>samples = 7<br/>value = [2.654, 17.185]<br/>class = l>, fillcolor="#58ace9"] ;
236 -> 237 ;
238 [label=<bmi &le; 1.5<br/>gini = 0.196<br/>samples = 6<br/>value = [2.124, 17.185]<br/>class = l>, fillcolor="#51a9e8"] ;
237 -> 238 ;
239 [label=<gini = 0.0<br/>samples = 1<br/>value = [0.531, 0.0]<br/>class = C>, fillcolor="#e58139"] ;
238 -> 239 ;
240 [label=<hypertension &le; 0.5<br/>gini = 0.155<br/>samples = 5<br/>value = [1.593, 17.185]<br/>class = l>, fillcolor="#4ba6e7"] ;
238 -> 240 ;
241 [label=<avg_glucose_level &le; 97.795<br/>gini = 0.264<br/>samples = 4<br/>value = [1.593, 8.593]<br/>class = l>, fillcolor="#5eafea"] ;
240 -> 241 ;
242 [label=<gini = -0.0<br/>samples = 3<br/>value = [1.593, 0.0]<br/>class = C>, fillcolor="#e58139"] ;
241 -> 242 ;
243 [label=<gini = 0.0<br/>samples = 1<br/>value = [0.0, 8.593]<br/>class = l>, fillcolor="#399de5"] ;
241 -> 243 ;
244 [label=<gini = 0.0<br/>samples = 1<br/>value = [0.0, 8.593]<br/>class = l>, fillcolor="#399de5"] ;
240 -> 244 ;
245 [label=<gini = -0.0<br/>samples = 1<br/>value = [0.531, 0.0]<br/>class = C>, fillcolor="#e58139"] ;
237 -> 245 ;
246 [label=<gini = -0.0<br/>samples = 1<br/>value = [0.531, 0.0]<br/>class = C>, fillcolor="#e58139"] ;
236 -> 246 ;
247 [label=<gini = -0.0<br/>samples = 2<br/>value = [1.062, 0.0]<br/>class = C>, fillcolor="#e58139"] ;
235 -> 247 ;
248 [label=<smoking_status &le; 0.5<br/>gini = 0.0<br/>samples = 43<br/>value = [22.828, 0.0]<br/>class = C>, fillcolor="#e58139"] ;
230 -> 248 ;
249 [label=<gini = 0.0<br/>samples = 18<br/>value = [9.556, 0.0]<br/>class = C>, fillcolor="#e58139"] ;
248 -> 249 ;
250 [label=<gini = 0.0<br/>samples = 25<br/>value = [13.272, 0.0]<br/>class = C>, fillcolor="#e58139"] ;
248 -> 250 ;
251 [label=<smoking_status &le; 0.5<br/>gini = 0.399<br/>samples = 157<br/>value = [71.67, 189.037]<br/>class = l>, fillcolor="#84c2ef"] ;
169 -> 251 ;
252 [label=<avg_glucose_level &le; 197.175<br/>gini = 0.5<br/>samples = 70<br/>value = [35.039, 34.37]<br/>class = C>, fillcolor="#fffdfb"] ;
251 -> 252 ;
253 [label=<gini = 0.0<br/>samples = 35<br/>value = [18.581, 0.0]<br/>class = C>, fillcolor="#e58139"] ;
252 -> 253 ;
254 [label=<age &le; 60.5<br/>gini = 0.438<br/>samples = 35<br/>value = [16.458, 34.37]<br/>class = l>, fillcolor="#98ccf1"] ;
252 -> 254 ;
255 [label=<work_type &le; 3.5<br/>gini = 0.0<br/>samples = 18<br/>value = [9.556, 0.0]<br/>class = C>, fillcolor="#e58139"] ;
254 -> 255 ;
256 [label=<gini = 0.0<br/>samples = 14<br/>value = [7.432, 0.0]<br/>class = C>, fillcolor="#e58139"] ;
255 -> 256 ;
257 [label=<gini = 0.0<br/>samples = 4<br/>value = [2.124, 0.0]<br/>class = C>, fillcolor="#e58139"] ;
255 -> 257 ;
258 [label=<age &le; 64.0<br/>gini = 0.279<br/>samples = 17<br/>value = [6.902, 34.37]<br/>class = l>, fillcolor="#61b1ea"] ;
254 -> 258 ;
259 [label=<bmi &le; 3.5<br/>gini = 0.176<br/>samples = 11<br/>value = [3.716, 34.37]<br/>class = l>, fillcolor="#4ea8e8"] ;
258 -> 259 ;
260 [label=<avg_glucose_level &le; 198.34<br/>gini = 0.11<br/>samples = 8<br/>value = [2.124, 34.37]<br/>class = l>, fillcolor="#45a3e7"] ;
259 -> 260 ;
261 [label=<gini = 0.0<br/>samples = 1<br/>value = [0.0, 8.593]<br/>class = l>, fillcolor="#399de5"] ;
260 -> 261 ;
262 [label=<avg_glucose_level &le; 200.675<br/>gini = 0.141<br/>samples = 7<br/>value = [2.124, 25.778]<br/>class = l>, fillcolor="#49a5e7"] ;
260 -> 262 ;
263 [label=<gini = 0.0<br/>samples = 1<br/>value = [0.531, 0.0]<br/>class = C>, fillcolor="#e58139"] ;
262 -> 263 ;
264 [label=<work_type &le; 3.5<br/>gini = 0.11<br/>samples = 6<br/>value = [1.593, 25.778]<br/>class = l>, fillcolor="#45a3e7"] ;
262 -> 264 ;
265 [label=<gini = 0.0<br/>samples = 2<br/>value = [0.0, 17.185]<br/>class = l>, fillcolor="#399de5"] ;
264 -> 265 ;
266 [label=<avg_glucose_level &le; 202.985<br/>gini = 0.264<br/>samples = 4<br/>value = [1.593, 8.593]<br/>class = l>, fillcolor="#5eafea"] ;
264 -> 266 ;
267 [label=<gini = 0.0<br/>samples = 1<br/>value = [0.0, 8.593]<br/>class = l>, fillcolor="#399de5"] ;
266 -> 267 ;
268 [label=<gini = -0.0<br/>samples = 3<br/>value = [1.593, 0.0]<br/>class = C>, fillcolor="#e58139"] ;
266 -> 268 ;
269 [label=<age &le; 62.5<br/>gini = 0.0<br/>samples = 3<br/>value = [1.593, 0.0]<br/>class = C>, fillcolor="#e58139"] ;
259 -> 269 ;
270 [label=<gini = 0.0<br/>samples = 2<br/>value = [1.062, 0.0]<br/>class = C>, fillcolor="#e58139"] ;
269 -> 270 ;
271 [label=<gini = 0.0<br/>samples = 1<br/>value = [0.531, 0.0]<br/>class = C>, fillcolor="#e58139"] ;
269 -> 271 ;
272 [label=<avg_glucose_level &le; 203.07<br/>gini = 0.0<br/>samples = 6<br/>value = [3.185, 0.0]<br/>class = C>, fillcolor="#e58139"] ;
258 -> 272 ;
273 [label=<gini = 0.0<br/>samples = 1<br/>value = [0.531, 0.0]<br/>class = C>, fillcolor="#e58139"] ;
272 -> 273 ;
274 [label=<gini = 0.0<br/>samples = 5<br/>value = [2.654, 0.0]<br/>class = C>, fillcolor="#e58139"] ;
272 -> 274 ;
275 [label=<avg_glucose_level &le; 240.65<br/>gini = 0.31<br/>samples = 87<br/>value = [36.632, 154.667]<br/>class = l>, fillcolor="#68b4eb"] ;
251 -> 275 ;
276 [label=<bmi &le; 3.5<br/>gini = 0.286<br/>samples = 79<br/>value = [32.384, 154.667]<br/>class = l>, fillcolor="#62b2ea"] ;
275 -> 276 ;
277 [label=<avg_glucose_level &le; 115.93<br/>gini = 0.374<br/>samples = 51<br/>value = [22.828, 68.741]<br/>class = l>, fillcolor="#7bbeee"] ;
276 -> 277 ;
278 [label=<gini = 0.0<br/>samples = 6<br/>value = [3.185, 0.0]<br/>class = C>, fillcolor="#e58139"] ;
277 -> 278 ;
279 [label=<age &le; 63.5<br/>gini = 0.346<br/>samples = 45<br/>value = [19.643, 68.741]<br/>class = l>, fillcolor="#72b9ec"] ;
277 -> 279 ;
280 [label=<avg_glucose_level &le; 117.305<br/>gini = 0.281<br/>samples = 30<br/>value = [12.211, 60.148]<br/>class = l>, fillcolor="#61b1ea"] ;
279 -> 280 ;
281 [label=<gini = 0.0<br/>samples = 2<br/>value = [0.0, 17.185]<br/>class = l>, fillcolor="#399de5"] ;
280 -> 281 ;
282 [label=<gender &le; 0.5<br/>gini = 0.345<br/>samples = 28<br/>value = [12.211, 42.963]<br/>class = l>, fillcolor="#71b9ec"] ;
280 -> 282 ;
283 [label=<avg_glucose_level &le; 136.595<br/>gini = 0.251<br/>samples = 19<br/>value = [7.432, 42.963]<br/>class = l>, fillcolor="#5baee9"] ;
282 -> 283 ;
284 [label=<gini = 0.0<br/>samples = 5<br/>value = [2.654, 0.0]<br/>class = C>, fillcolor="#e58139"] ;
283 -> 284 ;
285 [label=<Residence_type &le; 0.5<br/>gini = 0.18<br/>samples = 14<br/>value = [4.778, 42.963]<br/>class = l>, fillcolor="#4fa8e8"] ;
283 -> 285 ;
286 [label=<bmi &le; 2.5<br/>gini = 0.085<br/>samples = 7<br/>value = [1.593, 34.37]<br/>class = l>, fillcolor="#42a2e6"] ;
285 -> 286 ;
287 [label=<gini = 0.0<br/>samples = 3<br/>value = [1.593, 0.0]<br/>class = C>, fillcolor="#e58139"] ;
286 -> 287 ;
288 [label=<gini = -0.0<br/>samples = 4<br/>value = [0.0, 34.37]<br/>class = l>, fillcolor="#399de5"] ;
286 -> 288 ;
289 [label=<bmi &le; 1.5<br/>gini = 0.395<br/>samples = 7<br/>value = [3.185, 8.593]<br/>class = l>, fillcolor="#82c1ef"] ;
285 -> 289 ;
290 [label=<gini = 0.0<br/>samples = 1<br/>value = [0.0, 8.593]<br/>class = l>, fillcolor="#399de5"] ;
289 -> 290 ;
291 [label=<gini = -0.0<br/>samples = 6<br/>value = [3.185, 0.0]<br/>class = C>, fillcolor="#e58139"] ;
289 -> 291 ;
292 [label=<heart_disease &le; 0.5<br/>gini = 0.0<br/>samples = 9<br/>value = [4.778, 0.0]<br/>class = C>, fillcolor="#e58139"] ;
282 -> 292 ;
293 [label=<gini = 0.0<br/>samples = 7<br/>value = [3.716, 0.0]<br/>class = C>, fillcolor="#e58139"] ;
292 -> 293 ;
294 [label=<gini = 0.0<br/>samples = 2<br/>value = [1.062, 0.0]<br/>class = C>, fillcolor="#e58139"] ;
292 -> 294 ;
295 [label=<age &le; 66.5<br/>gini = 0.497<br/>samples = 15<br/>value = [7.432, 8.593]<br/>class = l>, fillcolor="#e4f2fb"] ;
279 -> 295 ;
296 [label=<gini = 0.0<br/>samples = 14<br/>value = [7.432, 0.0]<br/>class = C>, fillcolor="#e58139"] ;
295 -> 296 ;
297 [label=<gini = 0.0<br/>samples = 1<br/>value = [0.0, 8.593]<br/>class = l>, fillcolor="#399de5"] ;
295 -> 297 ;
298 [label=<avg_glucose_level &le; 230.205<br/>gini = 0.18<br/>samples = 28<br/>value = [9.556, 85.926]<br/>class = l>, fillcolor="#4fa8e8"] ;
276 -> 298 ;
299 [label=<heart_disease &le; 0.5<br/>gini = 0.155<br/>samples = 25<br/>value = [7.963, 85.926]<br/>class = l>, fillcolor="#4ba6e7"] ;
298 -> 299 ;
300 [label=<avg_glucose_level &le; 171.465<br/>gini = 0.239<br/>samples = 18<br/>value = [6.902, 42.963]<br/>class = l>, fillcolor="#59ade9"] ;
299 -> 300 ;
301 [label=<gini = 0.0<br/>samples = 4<br/>value = [2.124, 0.0]<br/>class = C>, fillcolor="#e58139"] ;
300 -> 301 ;
302 [label=<avg_glucose_level &le; 222.625<br/>gini = 0.18<br/>samples = 14<br/>value = [4.778, 42.963]<br/>class = l>, fillcolor="#4fa8e8"] ;
300 -> 302 ;
303 [label=<age &le; 65.5<br/>gini = 0.129<br/>samples = 11<br/>value = [3.185, 42.963]<br/>class = l>, fillcolor="#48a4e7"] ;
302 -> 303 ;
304 [label=<Residence_type &le; 0.5<br/>gini = 0.11<br/>samples = 10<br/>value = [2.654, 42.963]<br/>class = l>, fillcolor="#45a3e7"] ;
303 -> 304 ;
305 [label=<age &le; 62.0<br/>gini = 0.264<br/>samples = 4<br/>value = [1.593, 8.593]<br/>class = l>, fillcolor="#5eafea"] ;
304 -> 305 ;
306 [label=<gini = 0.0<br/>samples = 2<br/>value = [1.062, 0.0]<br/>class = C>, fillcolor="#e58139"] ;
305 -> 306 ;
307 [label=<age &le; 64.0<br/>gini = 0.11<br/>samples = 2<br/>value = [0.531, 8.593]<br/>class = l>, fillcolor="#45a3e7"] ;
305 -> 307 ;
308 [label=<gini = 0.0<br/>samples = 1<br/>value = [0.0, 8.593]<br/>class = l>, fillcolor="#399de5"] ;
307 -> 308 ;
309 [label=<gini = -0.0<br/>samples = 1<br/>value = [0.531, 0.0]<br/>class = C>, fillcolor="#e58139"] ;
307 -> 309 ;
310 [label=<age &le; 60.5<br/>gini = 0.058<br/>samples = 6<br/>value = [1.062, 34.37]<br/>class = l>, fillcolor="#3fa0e6"] ;
304 -> 310 ;
311 [label=<gini = 0.0<br/>samples = 3<br/>value = [0.0, 25.778]<br/>class = l>, fillcolor="#399de5"] ;
310 -> 311 ;
312 [label=<avg_glucose_level &le; 206.375<br/>gini = 0.196<br/>samples = 3<br/>value = [1.062, 8.593]<br/>class = l>, fillcolor="#51a9e8"] ;
310 -> 312 ;
313 [label=<gini = 0.0<br/>samples = 1<br/>value = [0.0, 8.593]<br/>class = l>, fillcolor="#399de5"] ;
312 -> 313 ;
314 [label=<gini = -0.0<br/>samples = 2<br/>value = [1.062, 0.0]<br/>class = C>, fillcolor="#e58139"] ;
312 -> 314 ;
315 [label=<gini = 0.0<br/>samples = 1<br/>value = [0.531, 0.0]<br/>class = C>, fillcolor="#e58139"] ;
303 -> 315 ;
316 [label=<hypertension &le; 0.5<br/>gini = 0.0<br/>samples = 3<br/>value = [1.593, 0.0]<br/>class = C>, fillcolor="#e58139"] ;
302 -> 316 ;
317 [label=<gini = 0.0<br/>samples = 1<br/>value = [0.531, 0.0]<br/>class = C>, fillcolor="#e58139"] ;
316 -> 317 ;
318 [label=<gini = 0.0<br/>samples = 2<br/>value = [1.062, 0.0]<br/>class = C>, fillcolor="#e58139"] ;
316 -> 318 ;
319 [label=<bmi &le; 4.5<br/>gini = 0.047<br/>samples = 7<br/>value = [1.062, 42.963]<br/>class = l>, fillcolor="#3e9fe6"] ;
299 -> 319 ;
320 [label=<gini = -0.0<br/>samples = 5<br/>value = [0.0, 42.963]<br/>class = l>, fillcolor="#399de5"] ;
319 -> 320 ;
321 [label=<hypertension &le; 0.5<br/>gini = 0.0<br/>samples = 2<br/>value = [1.062, 0.0]<br/>class = C>, fillcolor="#e58139"] ;
319 -> 321 ;
322 [label=<gini = 0.0<br/>samples = 1<br/>value = [0.531, 0.0]<br/>class = C>, fillcolor="#e58139"] ;
321 -> 322 ;
323 [label=<gini = 0.0<br/>samples = 1<br/>value = [0.531, 0.0]<br/>class = C>, fillcolor="#e58139"] ;
321 -> 323 ;
324 [label=<gender &le; 0.5<br/>gini = 0.0<br/>samples = 3<br/>value = [1.593, 0.0]<br/>class = C>, fillcolor="#e58139"] ;
298 -> 324 ;
325 [label=<gini = 0.0<br/>samples = 2<br/>value = [1.062, 0.0]<br/>class = C>, fillcolor="#e58139"] ;
324 -> 325 ;
326 [label=<gini = 0.0<br/>samples = 1<br/>value = [0.531, 0.0]<br/>class = C>, fillcolor="#e58139"] ;
324 -> 326 ;
327 [label=<gini = 0.0<br/>samples = 8<br/>value = [4.247, 0.0]<br/>class = C>, fillcolor="#e58139"] ;
275 -> 327 ;
328 [label=<age &le; 75.5<br/>gini = 0.337<br/>samples = 553<br/>value = [239.432, 876.444]<br/>class = l>, fillcolor="#6fb8ec"] ;
168 -> 328 ;
329 [label=<avg_glucose_level &le; 70.255<br/>gini = 0.42<br/>samples = 254<br/>value = [117.858, 274.963]<br/>class = l>, fillcolor="#8ec7f0"] ;
328 -> 329 ;
330 [label=<gini = 0.0<br/>samples = 29<br/>value = [15.396, 0.0]<br/>class = C>, fillcolor="#e58139"] ;
329 -> 330 ;
331 [label=<avg_glucose_level &le; 130.69<br/>gini = 0.396<br/>samples = 225<br/>value = [102.462, 274.963]<br/>class = l>, fillcolor="#83c2ef"] ;
329 -> 331 ;
332 [label=<avg_glucose_level &le; 103.155<br/>gini = 0.466<br/>samples = 136<br/>value = [65.3, 111.704]<br/>class = l>, fillcolor="#add6f4"] ;
331 -> 332 ;
333 [label=<bmi &le; 3.5<br/>gini = 0.416<br/>samples = 101<br/>value = [46.719, 111.704]<br/>class = l>, fillcolor="#8cc6f0"] ;
332 -> 333 ;
334 [label=<gender &le; 0.5<br/>gini = 0.387<br/>samples = 88<br/>value = [39.817, 111.704]<br/>class = l>, fillcolor="#80c0ee"] ;
333 -> 334 ;
335 [label=<Residence_type &le; 0.5<br/>gini = 0.497<br/>samples = 45<br/>value = [22.297, 25.778]<br/>class = l>, fillcolor="#e4f2fb"] ;
334 -> 335 ;
336 [label=<heart_disease &le; 0.5<br/>gini = 0.0<br/>samples = 23<br/>value = [12.211, 0.0]<br/>class = C>, fillcolor="#e58139"] ;
335 -> 336 ;
337 [label=<gini = 0.0<br/>samples = 19<br/>value = [10.087, 0.0]<br/>class = C>, fillcolor="#e58139"] ;
336 -> 337 ;
338 [label=<gini = 0.0<br/>samples = 4<br/>value = [2.124, 0.0]<br/>class = C>, fillcolor="#e58139"] ;
336 -> 338 ;
339 [label=<smoking_status &le; 0.5<br/>gini = 0.404<br/>samples = 22<br/>value = [10.087, 25.778]<br/>class = l>, fillcolor="#86c3ef"] ;
335 -> 339 ;
340 [label=<gini = 0.0<br/>samples = 11<br/>value = [5.84, 0.0]<br/>class = C>, fillcolor="#e58139"] ;
339 -> 340 ;
341 [label=<heart_disease &le; 0.5<br/>gini = 0.243<br/>samples = 11<br/>value = [4.247, 25.778]<br/>class = l>, fillcolor="#5aade9"] ;
339 -> 341 ;
342 [label=<bmi &le; 1.5<br/>gini = 0.169<br/>samples = 8<br/>value = [2.654, 25.778]<br/>class = l>, fillcolor="#4da7e8"] ;
341 -> 342 ;
343 [label=<gini = 0.0<br/>samples = 2<br/>value = [1.062, 0.0]<br/>class = C>, fillcolor="#e58139"] ;
342 -> 343 ;
344 [label=<hypertension &le; 0.5<br/>gini = 0.11<br/>samples = 6<br/>value = [1.593, 25.778]<br/>class = l>, fillcolor="#45a3e7"] ;
342 -> 344 ;
345 [label=<smoking_status &le; 1.5<br/>gini = 0.076<br/>samples = 5<br/>value = [1.062, 25.778]<br/>class = l>, fillcolor="#41a1e6"] ;
344 -> 345 ;
346 [label=<avg_glucose_level &le; 95.965<br/>gini = 0.196<br/>samples = 3<br/>value = [1.062, 8.593]<br/>class = l>, fillcolor="#51a9e8"] ;
345 -> 346 ;
347 [label=<gini = -0.0<br/>samples = 2<br/>value = [1.062, 0.0]<br/>class = C>, fillcolor="#e58139"] ;
346 -> 347 ;
348 [label=<gini = 0.0<br/>samples = 1<br/>value = [0.0, 8.593]<br/>class = l>, fillcolor="#399de5"] ;
346 -> 348 ;
349 [label=<gini = 0.0<br/>samples = 2<br/>value = [0.0, 17.185]<br/>class = l>, fillcolor="#399de5"] ;
345 -> 349 ;
350 [label=<gini = -0.0<br/>samples = 1<br/>value = [0.531, 0.0]<br/>class = C>, fillcolor="#e58139"] ;
344 -> 350 ;
351 [label=<gini = -0.0<br/>samples = 3<br/>value = [1.593, 0.0]<br/>class = C>, fillcolor="#e58139"] ;
341 -> 351 ;
352 [label=<avg_glucose_level &le; 80.065<br/>gini = 0.281<br/>samples = 43<br/>value = [17.519, 85.926]<br/>class = l>, fillcolor="#61b1ea"] ;
334 -> 352 ;
353 [label=<hypertension &le; 0.5<br/>gini = 0.125<br/>samples = 13<br/>value = [3.716, 51.556]<br/>class = l>, fillcolor="#47a4e7"] ;
352 -> 353 ;
354 [label=<bmi &le; 1.5<br/>gini = 0.22<br/>samples = 10<br/>value = [3.716, 25.778]<br/>class = l>, fillcolor="#56abe9"] ;
353 -> 354 ;
355 [label=<gini = 0.0<br/>samples = 3<br/>value = [1.593, 0.0]<br/>class = C>, fillcolor="#e58139"] ;
354 -> 355 ;
356 [label=<avg_glucose_level &le; 79.245<br/>gini = 0.141<br/>samples = 7<br/>value = [2.124, 25.778]<br/>class = l>, fillcolor="#49a5e7"] ;
354 -> 356 ;
357 [label=<Residence_type &le; 0.5<br/>gini = 0.076<br/>samples = 5<br/>value = [1.062, 25.778]<br/>class = l>, fillcolor="#41a1e6"] ;
356 -> 357 ;
358 [label=<avg_glucose_level &le; 76.795<br/>gini = 0.196<br/>samples = 3<br/>value = [1.062, 8.593]<br/>class = l>, fillcolor="#51a9e8"] ;
357 -> 358 ;
359 [label=<bmi &le; 2.5<br/>gini = 0.0<br/>samples = 2<br/>value = [1.062, 0.0]<br/>class = C>, fillcolor="#e58139"] ;
358 -> 359 ;
360 [label=<gini = 0.0<br/>samples = 1<br/>value = [0.531, 0.0]<br/>class = C>, fillcolor="#e58139"] ;
359 -> 360 ;
361 [label=<gini = 0.0<br/>samples = 1<br/>value = [0.531, 0.0]<br/>class = C>, fillcolor="#e58139"] ;
359 -> 361 ;
362 [label=<gini = 0.0<br/>samples = 1<br/>value = [0.0, 8.593]<br/>class = l>, fillcolor="#399de5"] ;
358 -> 362 ;
363 [label=<gini = -0.0<br/>samples = 2<br/>value = [0.0, 17.185]<br/>class = l>, fillcolor="#399de5"] ;
357 -> 363 ;
364 [label=<gini = -0.0<br/>samples = 2<br/>value = [1.062, 0.0]<br/>class = C>, fillcolor="#e58139"] ;
356 -> 364 ;
365 [label=<gini = 0.0<br/>samples = 3<br/>value = [0.0, 25.778]<br/>class = l>, fillcolor="#399de5"] ;
353 -> 365 ;
366 [label=<age &le; 72.5<br/>gini = 0.409<br/>samples = 30<br/>value = [13.803, 34.37]<br/>class = l>, fillcolor="#89c4ef"] ;
352 -> 366 ;
367 [label=<age &le; 68.5<br/>gini = 0.292<br/>samples = 18<br/>value = [7.432, 34.37]<br/>class = l>, fillcolor="#64b2eb"] ;
366 -> 367 ;
368 [label=<gini = 0.0<br/>samples = 5<br/>value = [2.654, 0.0]<br/>class = C>, fillcolor="#e58139"] ;
367 -> 368 ;
369 [label=<avg_glucose_level &le; 81.83<br/>gini = 0.214<br/>samples = 13<br/>value = [4.778, 34.37]<br/>class = l>, fillcolor="#55abe9"] ;
367 -> 369 ;
370 [label=<gini = 0.0<br/>samples = 2<br/>value = [1.062, 0.0]<br/>class = C>, fillcolor="#e58139"] ;
369 -> 370 ;
371 [label=<avg_glucose_level &le; 100.2<br/>gini = 0.176<br/>samples = 11<br/>value = [3.716, 34.37]<br/>class = l>, fillcolor="#4ea8e8"] ;
369 -> 371 ;
372 [label=<avg_glucose_level &le; 93.02<br/>gini = 0.155<br/>samples = 10<br/>value = [3.185, 34.37]<br/>class = l>, fillcolor="#4ba6e7"] ;
371 -> 372 ;
373 [label=<work_type &le; 3.5<br/>gini = 0.264<br/>samples = 8<br/>value = [3.185, 17.185]<br/>class = l>, fillcolor="#5eafea"] ;
372 -> 373 ;
374 [label=<gini = 0.0<br/>samples = 4<br/>value = [2.124, 0.0]<br/>class = C>, fillcolor="#e58139"] ;
373 -> 374 ;
375 [label=<age &le; 70.5<br/>gini = 0.11<br/>samples = 4<br/>value = [1.062, 17.185]<br/>class = l>, fillcolor="#45a3e7"] ;
373 -> 375 ;
376 [label=<smoking_status &le; 0.5<br/>gini = 0.058<br/>samples = 3<br/>value = [0.531, 17.185]<br/>class = l>, fillcolor="#3fa0e6"] ;
375 -> 376 ;
377 [label=<gini = 0.0<br/>samples = 1<br/>value = [0.0, 8.593]<br/>class = l>, fillcolor="#399de5"] ;
376 -> 377 ;
378 [label=<hypertension &le; 0.5<br/>gini = 0.11<br/>samples = 2<br/>value = [0.531, 8.593]<br/>class = l>, fillcolor="#45a3e7"] ;
376 -> 378 ;
379 [label=<gini = 0.0<br/>samples = 1<br/>value = [0.531, 0.0]<br/>class = C>, fillcolor="#e58139"] ;
378 -> 379 ;
380 [label=<gini = 0.0<br/>samples = 1<br/>value = [0.0, 8.593]<br/>class = l>, fillcolor="#399de5"] ;
378 -> 380 ;
381 [label=<gini = -0.0<br/>samples = 1<br/>value = [0.531, 0.0]<br/>class = C>, fillcolor="#e58139"] ;
375 -> 381 ;
382 [label=<gini = 0.0<br/>samples = 2<br/>value = [0.0, 17.185]<br/>class = l>, fillcolor="#399de5"] ;
372 -> 382 ;
383 [label=<gini = 0.0<br/>samples = 1<br/>value = [0.531, 0.0]<br/>class = C>, fillcolor="#e58139"] ;
371 -> 383 ;
384 [label=<heart_disease &le; 0.5<br/>gini = 0.0<br/>samples = 12<br/>value = [6.371, 0.0]<br/>class = C>, fillcolor="#e58139"] ;
366 -> 384 ;
385 [label=<gini = 0.0<br/>samples = 11<br/>value = [5.84, 0.0]<br/>class = C>, fillcolor="#e58139"] ;
384 -> 385 ;
386 [label=<gini = 0.0<br/>samples = 1<br/>value = [0.531, 0.0]<br/>class = C>, fillcolor="#e58139"] ;
384 -> 386 ;
387 [label=<gini = 0.0<br/>samples = 13<br/>value = [6.902, 0.0]<br/>class = C>, fillcolor="#e58139"] ;
333 -> 387 ;
388 [label=<gini = 0.0<br/>samples = 35<br/>value = [18.581, 0.0]<br/>class = C>, fillcolor="#e58139"] ;
332 -> 388 ;
389 [label=<hypertension &le; 0.5<br/>gini = 0.302<br/>samples = 89<br/>value = [37.162, 163.259]<br/>class = l>, fillcolor="#66b3eb"] ;
331 -> 389 ;
390 [label=<age &le; 74.5<br/>gini = 0.402<br/>samples = 58<br/>value = [26.545, 68.741]<br/>class = l>, fillcolor="#85c3ef"] ;
389 -> 390 ;
391 [label=<avg_glucose_level &le; 196.02<br/>gini = 0.365<br/>samples = 49<br/>value = [21.767, 68.741]<br/>class = l>, fillcolor="#78bced"] ;
390 -> 391 ;
392 [label=<work_type &le; 3.5<br/>gini = 0.176<br/>samples = 11<br/>value = [3.716, 34.37]<br/>class = l>, fillcolor="#4ea8e8"] ;
391 -> 392 ;
393 [label=<gini = 0.0<br/>samples = 3<br/>value = [1.593, 0.0]<br/>class = C>, fillcolor="#e58139"] ;
392 -> 393 ;
394 [label=<avg_glucose_level &le; 190.195<br/>gini = 0.11<br/>samples = 8<br/>value = [2.124, 34.37]<br/>class = l>, fillcolor="#45a3e7"] ;
392 -> 394 ;
395 [label=<age &le; 71.5<br/>gini = 0.318<br/>samples = 5<br/>value = [2.124, 8.593]<br/>class = l>, fillcolor="#6ab5eb"] ;
394 -> 395 ;
396 [label=<gini = -0.0<br/>samples = 4<br/>value = [2.124, 0.0]<br/>class = C>, fillcolor="#e58139"] ;
395 -> 396 ;
397 [label=<gini = 0.0<br/>samples = 1<br/>value = [0.0, 8.593]<br/>class = l>, fillcolor="#399de5"] ;
395 -> 397 ;
398 [label=<gini = 0.0<br/>samples = 3<br/>value = [0.0, 25.778]<br/>class = l>, fillcolor="#399de5"] ;
394 -> 398 ;
399 [label=<avg_glucose_level &le; 219.625<br/>gini = 0.452<br/>samples = 38<br/>value = [18.05, 34.37]<br/>class = l>, fillcolor="#a1d0f3"] ;
391 -> 399 ;
400 [label=<bmi &le; 2.5<br/>gini = 0.0<br/>samples = 21<br/>value = [11.149, 0.0]<br/>class = C>, fillcolor="#e58139"] ;
399 -> 400 ;
401 [label=<gini = 0.0<br/>samples = 7<br/>value = [3.716, 0.0]<br/>class = C>, fillcolor="#e58139"] ;
400 -> 401 ;
402 [label=<gini = 0.0<br/>samples = 14<br/>value = [7.432, 0.0]<br/>class = C>, fillcolor="#e58139"] ;
400 -> 402 ;
403 [label=<work_type &le; 3.5<br/>gini = 0.279<br/>samples = 17<br/>value = [6.902, 34.37]<br/>class = l>, fillcolor="#61b1ea"] ;
399 -> 403 ;
404 [label=<smoking_status &le; 1.5<br/>gini = 0.133<br/>samples = 9<br/>value = [2.654, 34.37]<br/>class = l>, fillcolor="#48a5e7"] ;
403 -> 404 ;
405 [label=<avg_glucose_level &le; 239.94<br/>gini = 0.11<br/>samples = 8<br/>value = [2.124, 34.37]<br/>class = l>, fillcolor="#45a3e7"] ;
404 -> 405 ;
406 [label=<avg_glucose_level &le; 224.745<br/>gini = 0.085<br/>samples = 7<br/>value = [1.593, 34.37]<br/>class = l>, fillcolor="#42a2e6"] ;
405 -> 406 ;
407 [label=<gini = 0.0<br/>samples = 2<br/>value = [0.0, 17.185]<br/>class = l>, fillcolor="#399de5"] ;
406 -> 407 ;
408 [label=<avg_glucose_level &le; 233.765<br/>gini = 0.155<br/>samples = 5<br/>value = [1.593, 17.185]<br/>class = l>, fillcolor="#4ba6e7"] ;
406 -> 408 ;
409 [label=<gini = 0.0<br/>samples = 2<br/>value = [1.062, 0.0]<br/>class = C>, fillcolor="#e58139"] ;
408 -> 409 ;
410 [label=<bmi &le; 3.5<br/>gini = 0.058<br/>samples = 3<br/>value = [0.531, 17.185]<br/>class = l>, fillcolor="#3fa0e6"] ;
408 -> 410 ;
411 [label=<heart_disease &le; 0.5<br/>gini = 0.11<br/>samples = 2<br/>value = [0.531, 8.593]<br/>class = l>, fillcolor="#45a3e7"] ;
410 -> 411 ;
412 [label=<gini = 0.0<br/>samples = 1<br/>value = [0.531, 0.0]<br/>class = C>, fillcolor="#e58139"] ;
411 -> 412 ;
413 [label=<gini = 0.0<br/>samples = 1<br/>value = [0.0, 8.593]<br/>class = l>, fillcolor="#399de5"] ;
411 -> 413 ;
414 [label=<gini = 0.0<br/>samples = 1<br/>value = [0.0, 8.593]<br/>class = l>, fillcolor="#399de5"] ;
410 -> 414 ;
415 [label=<gini = 0.0<br/>samples = 1<br/>value = [0.531, 0.0]<br/>class = C>, fillcolor="#e58139"] ;
405 -> 415 ;
416 [label=<gini = 0.0<br/>samples = 1<br/>value = [0.531, 0.0]<br/>class = C>, fillcolor="#e58139"] ;
404 -> 416 ;
417 [label=<Residence_type &le; 0.5<br/>gini = 0.0<br/>samples = 8<br/>value = [4.247, 0.0]<br/>class = C>, fillcolor="#e58139"] ;
403 -> 417 ;
418 [label=<gini = 0.0<br/>samples = 3<br/>value = [1.593, 0.0]<br/>class = C>, fillcolor="#e58139"] ;
417 -> 418 ;
419 [label=<gini = 0.0<br/>samples = 5<br/>value = [2.654, 0.0]<br/>class = C>, fillcolor="#e58139"] ;
417 -> 419 ;
420 [label=<gender &le; 0.5<br/>gini = 0.0<br/>samples = 9<br/>value = [4.778, 0.0]<br/>class = C>, fillcolor="#e58139"] ;
390 -> 420 ;
421 [label=<gini = 0.0<br/>samples = 4<br/>value = [2.124, 0.0]<br/>class = C>, fillcolor="#e58139"] ;
420 -> 421 ;
422 [label=<gini = 0.0<br/>samples = 5<br/>value = [2.654, 0.0]<br/>class = C>, fillcolor="#e58139"] ;
420 -> 422 ;
423 [label=<bmi &le; 1.5<br/>gini = 0.182<br/>samples = 31<br/>value = [10.618, 94.519]<br/>class = l>, fillcolor="#4fa8e8"] ;
389 -> 423 ;
424 [label=<gini = 0.0<br/>samples = 2<br/>value = [1.062, 0.0]<br/>class = C>, fillcolor="#e58139"] ;
423 -> 424 ;
425 [label=<avg_glucose_level &le; 195.01<br/>gini = 0.167<br/>samples = 29<br/>value = [9.556, 94.519]<br/>class = l>, fillcolor="#4da7e8"] ;
423 -> 425 ;
426 [label=<bmi &le; 3.5<br/>gini = 0.03<br/>samples = 5<br/>value = [0.531, 34.37]<br/>class = l>, fillcolor="#3c9fe5"] ;
425 -> 426 ;
427 [label=<age &le; 72.0<br/>gini = 0.11<br/>samples = 2<br/>value = [0.531, 8.593]<br/>class = l>, fillcolor="#45a3e7"] ;
426 -> 427 ;
428 [label=<gini = 0.0<br/>samples = 1<br/>value = [0.531, 0.0]<br/>class = C>, fillcolor="#e58139"] ;
427 -> 428 ;
429 [label=<gini = 0.0<br/>samples = 1<br/>value = [0.0, 8.593]<br/>class = l>, fillcolor="#399de5"] ;
427 -> 429 ;
430 [label=<gender &le; 0.5<br/>gini = 0.0<br/>samples = 3<br/>value = [0.0, 25.778]<br/>class = l>, fillcolor="#399de5"] ;
426 -> 430 ;
431 [label=<gini = 0.0<br/>samples = 2<br/>value = [0.0, 17.185]<br/>class = l>, fillcolor="#399de5"] ;
430 -> 431 ;
432 [label=<gini = 0.0<br/>samples = 1<br/>value = [0.0, 8.593]<br/>class = l>, fillcolor="#399de5"] ;
430 -> 432 ;
433 [label=<avg_glucose_level &le; 204.535<br/>gini = 0.227<br/>samples = 24<br/>value = [9.025, 60.148]<br/>class = l>, fillcolor="#57ace9"] ;
425 -> 433 ;
434 [label=<gini = 0.0<br/>samples = 7<br/>value = [3.716, 0.0]<br/>class = C>, fillcolor="#e58139"] ;
433 -> 434 ;
435 [label=<work_type &le; 3.5<br/>gini = 0.149<br/>samples = 17<br/>value = [5.309, 60.148]<br/>class = l>, fillcolor="#4aa6e7"] ;
433 -> 435 ;
436 [label=<avg_glucose_level &le; 219.565<br/>gini = 0.09<br/>samples = 9<br/>value = [2.124, 42.963]<br/>class = l>, fillcolor="#43a2e6"] ;
435 -> 436 ;
437 [label=<gini = 0.0<br/>samples = 2<br/>value = [1.062, 0.0]<br/>class = C>, fillcolor="#e58139"] ;
436 -> 437 ;
438 [label=<avg_glucose_level &le; 236.125<br/>gini = 0.047<br/>samples = 7<br/>value = [1.062, 42.963]<br/>class = l>, fillcolor="#3e9fe6"] ;
436 -> 438 ;
439 [label=<avg_glucose_level &le; 225.5<br/>gini = 0.11<br/>samples = 4<br/>value = [1.062, 17.185]<br/>class = l>, fillcolor="#45a3e7"] ;
438 -> 439 ;
440 [label=<gini = 0.0<br/>samples = 2<br/>value = [0.0, 17.185]<br/>class = l>, fillcolor="#399de5"] ;
439 -> 440 ;
441 [label=<gini = -0.0<br/>samples = 2<br/>value = [1.062, 0.0]<br/>class = C>, fillcolor="#e58139"] ;
439 -> 441 ;
442 [label=<gini = 0.0<br/>samples = 3<br/>value = [0.0, 25.778]<br/>class = l>, fillcolor="#399de5"] ;
438 -> 442 ;
443 [label=<avg_glucose_level &le; 218.37<br/>gini = 0.264<br/>samples = 8<br/>value = [3.185, 17.185]<br/>class = l>, fillcolor="#5eafea"] ;
435 -> 443 ;
444 [label=<Residence_type &le; 0.5<br/>gini = 0.058<br/>samples = 3<br/>value = [0.531, 17.185]<br/>class = l>, fillcolor="#3fa0e6"] ;
443 -> 444 ;
445 [label=<gini = 0.0<br/>samples = 2<br/>value = [0.0, 17.185]<br/>class = l>, fillcolor="#399de5"] ;
444 -> 445 ;
446 [label=<gini = -0.0<br/>samples = 1<br/>value = [0.531, 0.0]<br/>class = C>, fillcolor="#e58139"] ;
444 -> 446 ;
447 [label=<gini = -0.0<br/>samples = 5<br/>value = [2.654, 0.0]<br/>class = C>, fillcolor="#e58139"] ;
443 -> 447 ;
448 [label=<bmi &le; 0.5<br/>gini = 0.28<br/>samples = 299<br/>value = [121.574, 601.481]<br/>class = l>, fillcolor="#61b1ea"] ;
328 -> 448 ;
449 [label=<gini = 0.0<br/>samples = 5<br/>value = [2.654, 0.0]<br/>class = C>, fillcolor="#e58139"] ;
448 -> 449 ;
450 [label=<avg_glucose_level &le; 103.64<br/>gini = 0.276<br/>samples = 294<br/>value = [118.92, 601.481]<br/>class = l>, fillcolor="#60b0ea"] ;
448 -> 450 ;
451 [label=<avg_glucose_level &le; 99.4<br/>gini = 0.321<br/>samples = 157<br/>value = [66.892, 266.37]<br/>class = l>, fillcolor="#6bb6ec"] ;
450 -> 451 ;
452 [label=<avg_glucose_level &le; 76.605<br/>gini = 0.293<br/>samples = 140<br/>value = [57.867, 266.37]<br/>class = l>, fillcolor="#64b2eb"] ;
451 -> 452 ;
453 [label=<Residence_type &le; 0.5<br/>gini = 0.234<br/>samples = 67<br/>value = [25.483, 163.259]<br/>class = l>, fillcolor="#58ace9"] ;
452 -> 453 ;
454 [label=<avg_glucose_level &le; 75.105<br/>gini = 0.159<br/>samples = 28<br/>value = [9.025, 94.519]<br/>class = l>, fillcolor="#4ca6e7"] ;
453 -> 454 ;
455 [label=<bmi &le; 3.5<br/>gini = 0.143<br/>samples = 26<br/>value = [7.963, 94.519]<br/>class = l>, fillcolor="#4aa5e7"] ;
454 -> 455 ;
456 [label=<age &le; 80.5<br/>gini = 0.135<br/>samples = 25<br/>value = [7.432, 94.519]<br/>class = l>, fillcolor="#49a5e7"] ;
455 -> 456 ;
457 [label=<bmi &le; 2.5<br/>gini = 0.087<br/>samples = 16<br/>value = [3.716, 77.333]<br/>class = l>, fillcolor="#43a2e6"] ;
456 -> 457 ;
458 [label=<smoking_status &le; 0.5<br/>gini = 0.076<br/>samples = 15<br/>value = [3.185, 77.333]<br/>class = l>, fillcolor="#41a1e6"] ;
457 -> 458 ;
459 [label=<avg_glucose_level &le; 58.965<br/>gini = 0.11<br/>samples = 10<br/>value = [2.654, 42.963]<br/>class = l>, fillcolor="#45a3e7"] ;
458 -> 459 ;
460 [label=<gini = 0.0<br/>samples = 1<br/>value = [0.531, 0.0]<br/>class = C>, fillcolor="#e58139"] ;
459 -> 460 ;
461 [label=<age &le; 77.5<br/>gini = 0.09<br/>samples = 9<br/>value = [2.124, 42.963]<br/>class = l>, fillcolor="#43a2e6"] ;
459 -> 461 ;
462 [label=<gini = 0.0<br/>samples = 1<br/>value = [0.531, 0.0]<br/>class = C>, fillcolor="#e58139"] ;
461 -> 462 ;
463 [label=<avg_glucose_level &le; 72.64<br/>gini = 0.069<br/>samples = 8<br/>value = [1.593, 42.963]<br/>class = l>, fillcolor="#40a1e6"] ;
461 -> 463 ;
464 [label=<heart_disease &le; 0.5<br/>gini = 0.196<br/>samples = 3<br/>value = [1.062, 8.593]<br/>class = l>, fillcolor="#51a9e8"] ;
463 -> 464 ;
465 [label=<avg_glucose_level &le; 70.975<br/>gini = 0.0<br/>samples = 2<br/>value = [1.062, 0.0]<br/>class = C>, fillcolor="#e58139"] ;
464 -> 465 ;
466 [label=<gini = 0.0<br/>samples = 1<br/>value = [0.531, 0.0]<br/>class = C>, fillcolor="#e58139"] ;
465 -> 466 ;
467 [label=<gini = 0.0<br/>samples = 1<br/>value = [0.531, 0.0]<br/>class = C>, fillcolor="#e58139"] ;
465 -> 467 ;
468 [label=<gini = 0.0<br/>samples = 1<br/>value = [0.0, 8.593]<br/>class = l>, fillcolor="#399de5"] ;
464 -> 468 ;
469 [label=<work_type &le; 3.5<br/>gini = 0.03<br/>samples = 5<br/>value = [0.531, 34.37]<br/>class = l>, fillcolor="#3c9fe5"] ;
463 -> 469 ;
470 [label=<gini = 0.0<br/>samples = 3<br/>value = [0.0, 25.778]<br/>class = l>, fillcolor="#399de5"] ;
469 -> 470 ;
471 [label=<avg_glucose_level &le; 73.335<br/>gini = 0.11<br/>samples = 2<br/>value = [0.531, 8.593]<br/>class = l>, fillcolor="#45a3e7"] ;
469 -> 471 ;
472 [label=<gini = 0.0<br/>samples = 1<br/>value = [0.0, 8.593]<br/>class = l>, fillcolor="#399de5"] ;
471 -> 472 ;
473 [label=<gini = -0.0<br/>samples = 1<br/>value = [0.531, 0.0]<br/>class = C>, fillcolor="#e58139"] ;
471 -> 473 ;
474 [label=<work_type &le; 3.5<br/>gini = 0.03<br/>samples = 5<br/>value = [0.531, 34.37]<br/>class = l>, fillcolor="#3c9fe5"] ;
458 -> 474 ;
475 [label=<gini = 0.0<br/>samples = 1<br/>value = [0.531, 0.0]<br/>class = C>, fillcolor="#e58139"] ;
474 -> 475 ;
476 [label=<gini = 0.0<br/>samples = 4<br/>value = [0.0, 34.37]<br/>class = l>, fillcolor="#399de5"] ;
474 -> 476 ;
477 [label=<gini = 0.0<br/>samples = 1<br/>value = [0.531, 0.0]<br/>class = C>, fillcolor="#e58139"] ;
457 -> 477 ;
478 [label=<gender &le; 0.5<br/>gini = 0.292<br/>samples = 9<br/>value = [3.716, 17.185]<br/>class = l>, fillcolor="#64b2eb"] ;
456 -> 478 ;
479 [label=<gini = 0.0<br/>samples = 3<br/>value = [1.593, 0.0]<br/>class = C>, fillcolor="#e58139"] ;
478 -> 479 ;
480 [label=<avg_glucose_level &le; 59.3<br/>gini = 0.196<br/>samples = 6<br/>value = [2.124, 17.185]<br/>class = l>, fillcolor="#51a9e8"] ;
478 -> 480 ;
481 [label=<gini = 0.0<br/>samples = 2<br/>value = [1.062, 0.0]<br/>class = C>, fillcolor="#e58139"] ;
480 -> 481 ;
482 [label=<bmi &le; 1.5<br/>gini = 0.11<br/>samples = 4<br/>value = [1.062, 17.185]<br/>class = l>, fillcolor="#45a3e7"] ;
480 -> 482 ;
483 [label=<gini = 0.0<br/>samples = 1<br/>value = [0.531, 0.0]<br/>class = C>, fillcolor="#e58139"] ;
482 -> 483 ;
484 [label=<work_type &le; 3.5<br/>gini = 0.058<br/>samples = 3<br/>value = [0.531, 17.185]<br/>class = l>, fillcolor="#3fa0e6"] ;
482 -> 484 ;
485 [label=<avg_glucose_level &le; 64.165<br/>gini = 0.11<br/>samples = 2<br/>value = [0.531, 8.593]<br/>class = l>, fillcolor="#45a3e7"] ;
484 -> 485 ;
486 [label=<gini = 0.0<br/>samples = 1<br/>value = [0.0, 8.593]<br/>class = l>, fillcolor="#399de5"] ;
485 -> 486 ;
487 [label=<gini = -0.0<br/>samples = 1<br/>value = [0.531, 0.0]<br/>class = C>, fillcolor="#e58139"] ;
485 -> 487 ;
488 [label=<gini = 0.0<br/>samples = 1<br/>value = [0.0, 8.593]<br/>class = l>, fillcolor="#399de5"] ;
484 -> 488 ;
489 [label=<gini = 0.0<br/>samples = 1<br/>value = [0.531, 0.0]<br/>class = C>, fillcolor="#e58139"] ;
455 -> 489 ;
490 [label=<age &le; 79.0<br/>gini = 0.0<br/>samples = 2<br/>value = [1.062, 0.0]<br/>class = C>, fillcolor="#e58139"] ;
454 -> 490 ;
491 [label=<gini = 0.0<br/>samples = 1<br/>value = [0.531, 0.0]<br/>class = C>, fillcolor="#e58139"] ;
490 -> 491 ;
492 [label=<gini = 0.0<br/>samples = 1<br/>value = [0.531, 0.0]<br/>class = C>, fillcolor="#e58139"] ;
490 -> 492 ;
493 [label=<avg_glucose_level &le; 57.845<br/>gini = 0.312<br/>samples = 39<br/>value = [16.458, 68.741]<br/>class = l>, fillcolor="#68b4eb"] ;
453 -> 493 ;
494 [label=<gini = 0.0<br/>samples = 6<br/>value = [3.185, 0.0]<br/>class = C>, fillcolor="#e58139"] ;
493 -> 494 ;
495 [label=<age &le; 79.5<br/>gini = 0.271<br/>samples = 33<br/>value = [13.272, 68.741]<br/>class = l>, fillcolor="#5fb0ea"] ;
493 -> 495 ;
496 [label=<work_type &le; 3.5<br/>gini = 0.443<br/>samples = 18<br/>value = [8.494, 17.185]<br/>class = l>, fillcolor="#9bcdf2"] ;
495 -> 496 ;
497 [label=<bmi &le; 1.5<br/>gini = 0.318<br/>samples = 10<br/>value = [4.247, 17.185]<br/>class = l>, fillcolor="#6ab5eb"] ;
496 -> 497 ;
498 [label=<gini = 0.0<br/>samples = 3<br/>value = [1.593, 0.0]<br/>class = C>, fillcolor="#e58139"] ;
497 -> 498 ;
499 [label=<smoking_status &le; 1.5<br/>gini = 0.232<br/>samples = 7<br/>value = [2.654, 17.185]<br/>class = l>, fillcolor="#58ace9"] ;
497 -> 499 ;
500 [label=<age &le; 78.5<br/>gini = 0.196<br/>samples = 6<br/>value = [2.124, 17.185]<br/>class = l>, fillcolor="#51a9e8"] ;
499 -> 500 ;
501 [label=<age &le; 76.5<br/>gini = 0.155<br/>samples = 5<br/>value = [1.593, 17.185]<br/>class = l>, fillcolor="#4ba6e7"] ;
500 -> 501 ;
502 [label=<gini = 0.0<br/>samples = 1<br/>value = [0.0, 8.593]<br/>class = l>, fillcolor="#399de5"] ;
501 -> 502 ;
503 [label=<hypertension &le; 0.5<br/>gini = 0.264<br/>samples = 4<br/>value = [1.593, 8.593]<br/>class = l>, fillcolor="#5eafea"] ;
501 -> 503 ;
504 [label=<gini = -0.0<br/>samples = 3<br/>value = [1.593, 0.0]<br/>class = C>, fillcolor="#e58139"] ;
503 -> 504 ;
505 [label=<gini = 0.0<br/>samples = 1<br/>value = [0.0, 8.593]<br/>class = l>, fillcolor="#399de5"] ;
503 -> 505 ;
506 [label=<gini = -0.0<br/>samples = 1<br/>value = [0.531, 0.0]<br/>class = C>, fillcolor="#e58139"] ;
500 -> 506 ;
507 [label=<gini = -0.0<br/>samples = 1<br/>value = [0.531, 0.0]<br/>class = C>, fillcolor="#e58139"] ;
499 -> 507 ;
508 [label=<gini = -0.0<br/>samples = 8<br/>value = [4.247, 0.0]<br/>class = C>, fillcolor="#e58139"] ;
496 -> 508 ;
509 [label=<avg_glucose_level &le; 64.295<br/>gini = 0.155<br/>samples = 15<br/>value = [4.778, 51.556]<br/>class = l>, fillcolor="#4ba6e7"] ;
495 -> 509 ;
510 [label=<gini = 0.0<br/>samples = 5<br/>value = [2.654, 0.0]<br/>class = C>, fillcolor="#e58139"] ;
509 -> 510 ;
511 [label=<age &le; 81.5<br/>gini = 0.076<br/>samples = 10<br/>value = [2.124, 51.556]<br/>class = l>, fillcolor="#41a1e6"] ;
509 -> 511 ;
512 [label=<avg_glucose_level &le; 71.505<br/>gini = 0.058<br/>samples = 9<br/>value = [1.593, 51.556]<br/>class = l>, fillcolor="#3fa0e6"] ;
511 -> 512 ;
513 [label=<gini = 0.0<br/>samples = 4<br/>value = [0.0, 34.37]<br/>class = l>, fillcolor="#399de5"] ;
512 -> 513 ;
514 [label=<smoking_status &le; 0.5<br/>gini = 0.155<br/>samples = 5<br/>value = [1.593, 17.185]<br/>class = l>, fillcolor="#4ba6e7"] ;
512 -> 514 ;
515 [label=<avg_glucose_level &le; 72.76<br/>gini = 0.11<br/>samples = 4<br/>value = [1.062, 17.185]<br/>class = l>, fillcolor="#45a3e7"] ;
514 -> 515 ;
516 [label=<gini = 0.0<br/>samples = 1<br/>value = [0.531, 0.0]<br/>class = C>, fillcolor="#e58139"] ;
515 -> 516 ;
517 [label=<age &le; 80.5<br/>gini = 0.058<br/>samples = 3<br/>value = [0.531, 17.185]<br/>class = l>, fillcolor="#3fa0e6"] ;
515 -> 517 ;
518 [label=<avg_glucose_level &le; 75.22<br/>gini = 0.11<br/>samples = 2<br/>value = [0.531, 8.593]<br/>class = l>, fillcolor="#45a3e7"] ;
517 -> 518 ;
519 [label=<gini = 0.0<br/>samples = 1<br/>value = [0.531, 0.0]<br/>class = C>, fillcolor="#e58139"] ;
518 -> 519 ;
520 [label=<gini = 0.0<br/>samples = 1<br/>value = [0.0, 8.593]<br/>class = l>, fillcolor="#399de5"] ;
518 -> 520 ;
521 [label=<gini = 0.0<br/>samples = 1<br/>value = [0.0, 8.593]<br/>class = l>, fillcolor="#399de5"] ;
517 -> 521 ;
522 [label=<gini = -0.0<br/>samples = 1<br/>value = [0.531, 0.0]<br/>class = C>, fillcolor="#e58139"] ;
514 -> 522 ;
523 [label=<gini = 0.0<br/>samples = 1<br/>value = [0.531, 0.0]<br/>class = C>, fillcolor="#e58139"] ;
511 -> 523 ;
524 [label=<avg_glucose_level &le; 86.355<br/>gini = 0.364<br/>samples = 73<br/>value = [32.384, 103.111]<br/>class = l>, fillcolor="#77bced"] ;
452 -> 524 ;
525 [label=<work_type &le; 3.5<br/>gini = 0.491<br/>samples = 40<br/>value = [19.643, 25.778]<br/>class = l>, fillcolor="#d0e8f9"] ;
524 -> 525 ;
526 [label=<avg_glucose_level &le; 80.435<br/>gini = 0.361<br/>samples = 18<br/>value = [7.963, 25.778]<br/>class = l>, fillcolor="#76bbed"] ;
525 -> 526 ;
527 [label=<Residence_type &le; 0.5<br/>gini = 0.22<br/>samples = 10<br/>value = [3.716, 25.778]<br/>class = l>, fillcolor="#56abe9"] ;
526 -> 527 ;
528 [label=<bmi &le; 2.5<br/>gini = 0.11<br/>samples = 6<br/>value = [1.593, 25.778]<br/>class = l>, fillcolor="#45a3e7"] ;
527 -> 528 ;
529 [label=<gender &le; 0.5<br/>gini = 0.076<br/>samples = 5<br/>value = [1.062, 25.778]<br/>class = l>, fillcolor="#41a1e6"] ;
528 -> 529 ;
530 [label=<avg_glucose_level &le; 78.935<br/>gini = 0.196<br/>samples = 3<br/>value = [1.062, 8.593]<br/>class = l>, fillcolor="#51a9e8"] ;
529 -> 530 ;
531 [label=<gini = 0.0<br/>samples = 1<br/>value = [0.0, 8.593]<br/>class = l>, fillcolor="#399de5"] ;
530 -> 531 ;
532 [label=<gini = -0.0<br/>samples = 2<br/>value = [1.062, 0.0]<br/>class = C>, fillcolor="#e58139"] ;
530 -> 532 ;
533 [label=<gini = 0.0<br/>samples = 2<br/>value = [0.0, 17.185]<br/>class = l>, fillcolor="#399de5"] ;
529 -> 533 ;
534 [label=<gini = -0.0<br/>samples = 1<br/>value = [0.531, 0.0]<br/>class = C>, fillcolor="#e58139"] ;
528 -> 534 ;
535 [label=<gini = -0.0<br/>samples = 4<br/>value = [2.124, 0.0]<br/>class = C>, fillcolor="#e58139"] ;
527 -> 535 ;
536 [label=<gender &le; 0.5<br/>gini = 0.0<br/>samples = 8<br/>value = [4.247, 0.0]<br/>class = C>, fillcolor="#e58139"] ;
526 -> 536 ;
537 [label=<gini = 0.0<br/>samples = 4<br/>value = [2.124, 0.0]<br/>class = C>, fillcolor="#e58139"] ;
536 -> 537 ;
538 [label=<gini = 0.0<br/>samples = 4<br/>value = [2.124, 0.0]<br/>class = C>, fillcolor="#e58139"] ;
536 -> 538 ;
539 [label=<avg_glucose_level &le; 77.08<br/>gini = 0.0<br/>samples = 22<br/>value = [11.68, 0.0]<br/>class = C>, fillcolor="#e58139"] ;
525 -> 539 ;
540 [label=<gini = 0.0<br/>samples = 2<br/>value = [1.062, 0.0]<br/>class = C>, fillcolor="#e58139"] ;
539 -> 540 ;
541 [label=<gini = 0.0<br/>samples = 20<br/>value = [10.618, 0.0]<br/>class = C>, fillcolor="#e58139"] ;
539 -> 541 ;
542 [label=<age &le; 76.5<br/>gini = 0.243<br/>samples = 33<br/>value = [12.741, 77.333]<br/>class = l>, fillcolor="#5aade9"] ;
524 -> 542 ;
543 [label=<gini = 0.0<br/>samples = 2<br/>value = [1.062, 0.0]<br/>class = C>, fillcolor="#e58139"] ;
542 -> 543 ;
544 [label=<heart_disease &le; 0.5<br/>gini = 0.228<br/>samples = 31<br/>value = [11.68, 77.333]<br/>class = l>, fillcolor="#57ace9"] ;
542 -> 544 ;
545 [label=<work_type &le; 3.5<br/>gini = 0.212<br/>samples = 29<br/>value = [10.618, 77.333]<br/>class = l>, fillcolor="#54aae9"] ;
544 -> 545 ;
546 [label=<age &le; 78.5<br/>gini = 0.333<br/>samples = 16<br/>value = [6.902, 25.778]<br/>class = l>, fillcolor="#6eb7ec"] ;
545 -> 546 ;
547 [label=<gini = 0.0<br/>samples = 7<br/>value = [3.716, 0.0]<br/>class = C>, fillcolor="#e58139"] ;
546 -> 547 ;
548 [label=<hypertension &le; 0.5<br/>gini = 0.196<br/>samples = 9<br/>value = [3.185, 25.778]<br/>class = l>, fillcolor="#51a9e8"] ;
546 -> 548 ;
549 [label=<age &le; 79.5<br/>gini = 0.141<br/>samples = 7<br/>value = [2.124, 25.778]<br/>class = l>, fillcolor="#49a5e7"] ;
548 -> 549 ;
550 [label=<avg_glucose_level &le; 91.91<br/>gini = 0.058<br/>samples = 3<br/>value = [0.531, 17.185]<br/>class = l>, fillcolor="#3fa0e6"] ;
549 -> 550 ;
551 [label=<gini = 0.0<br/>samples = 1<br/>value = [0.531, 0.0]<br/>class = C>, fillcolor="#e58139"] ;
550 -> 551 ;
552 [label=<gini = 0.0<br/>samples = 2<br/>value = [0.0, 17.185]<br/>class = l>, fillcolor="#399de5"] ;
550 -> 552 ;
553 [label=<avg_glucose_level &le; 89.79<br/>gini = 0.264<br/>samples = 4<br/>value = [1.593, 8.593]<br/>class = l>, fillcolor="#5eafea"] ;
549 -> 553 ;
554 [label=<gini = 0.0<br/>samples = 1<br/>value = [0.0, 8.593]<br/>class = l>, fillcolor="#399de5"] ;
553 -> 554 ;
555 [label=<gini = -0.0<br/>samples = 3<br/>value = [1.593, 0.0]<br/>class = C>, fillcolor="#e58139"] ;
553 -> 555 ;
556 [label=<gini = -0.0<br/>samples = 2<br/>value = [1.062, 0.0]<br/>class = C>, fillcolor="#e58139"] ;
548 -> 556 ;
557 [label=<avg_glucose_level &le; 89.51<br/>gini = 0.125<br/>samples = 13<br/>value = [3.716, 51.556]<br/>class = l>, fillcolor="#47a4e7"] ;
545 -> 557 ;
558 [label=<gini = 0.0<br/>samples = 1<br/>value = [0.531, 0.0]<br/>class = C>, fillcolor="#e58139"] ;
557 -> 558 ;
559 [label=<age &le; 78.5<br/>gini = 0.11<br/>samples = 12<br/>value = [3.185, 51.556]<br/>class = l>, fillcolor="#45a3e7"] ;
557 -> 559 ;
560 [label=<gini = 0.0<br/>samples = 3<br/>value = [0.0, 25.778]<br/>class = l>, fillcolor="#399de5"] ;
559 -> 560 ;
561 [label=<avg_glucose_level &le; 90.96<br/>gini = 0.196<br/>samples = 9<br/>value = [3.185, 25.778]<br/>class = l>, fillcolor="#51a9e8"] ;
559 -> 561 ;
562 [label=<gini = 0.0<br/>samples = 2<br/>value = [1.062, 0.0]<br/>class = C>, fillcolor="#e58139"] ;
561 -> 562 ;
563 [label=<age &le; 79.5<br/>gini = 0.141<br/>samples = 7<br/>value = [2.124, 25.778]<br/>class = l>, fillcolor="#49a5e7"] ;
561 -> 563 ;
564 [label=<avg_glucose_level &le; 97.915<br/>gini = 0.318<br/>samples = 5<br/>value = [2.124, 8.593]<br/>class = l>, fillcolor="#6ab5eb"] ;
563 -> 564 ;
565 [label=<gini = -0.0<br/>samples = 4<br/>value = [2.124, 0.0]<br/>class = C>, fillcolor="#e58139"] ;
564 -> 565 ;
566 [label=<gini = 0.0<br/>samples = 1<br/>value = [0.0, 8.593]<br/>class = l>, fillcolor="#399de5"] ;
564 -> 566 ;
567 [label=<gini = 0.0<br/>samples = 2<br/>value = [0.0, 17.185]<br/>class = l>, fillcolor="#399de5"] ;
563 -> 567 ;
568 [label=<work_type &le; 3.5<br/>gini = 0.0<br/>samples = 2<br/>value = [1.062, 0.0]<br/>class = C>, fillcolor="#e58139"] ;
544 -> 568 ;
569 [label=<gini = 0.0<br/>samples = 1<br/>value = [0.531, 0.0]<br/>class = C>, fillcolor="#e58139"] ;
568 -> 569 ;
570 [label=<gini = 0.0<br/>samples = 1<br/>value = [0.531, 0.0]<br/>class = C>, fillcolor="#e58139"] ;
568 -> 570 ;
571 [label=<gini = 0.0<br/>samples = 17<br/>value = [9.025, 0.0]<br/>class = C>, fillcolor="#e58139"] ;
451 -> 571 ;
572 [label=<avg_glucose_level &le; 263.615<br/>gini = 0.233<br/>samples = 137<br/>value = [52.027, 335.111]<br/>class = l>, fillcolor="#58ace9"] ;
450 -> 572 ;
573 [label=<avg_glucose_level &le; 205.93<br/>gini = 0.229<br/>samples = 135<br/>value = [50.966, 335.111]<br/>class = l>, fillcolor="#57ace9"] ;
572 -> 573 ;
574 [label=<bmi &le; 3.5<br/>gini = 0.196<br/>samples = 87<br/>value = [30.792, 249.185]<br/>class = l>, fillcolor="#51a9e8"] ;
573 -> 574 ;
575 [label=<smoking_status &le; 0.5<br/>gini = 0.185<br/>samples = 80<br/>value = [27.606, 240.593]<br/>class = l>, fillcolor="#50a8e8"] ;
574 -> 575 ;
576 [label=<age &le; 76.5<br/>gini = 0.234<br/>samples = 46<br/>value = [17.519, 111.704]<br/>class = l>, fillcolor="#58ace9"] ;
575 -> 576 ;
577 [label=<gini = 0.0<br/>samples = 5<br/>value = [2.654, 0.0]<br/>class = C>, fillcolor="#e58139"] ;
576 -> 577 ;
578 [label=<avg_glucose_level &le; 197.52<br/>gini = 0.207<br/>samples = 41<br/>value = [14.865, 111.704]<br/>class = l>, fillcolor="#53aae8"] ;
576 -> 578 ;
579 [label=<avg_glucose_level &le; 105.925<br/>gini = 0.19<br/>samples = 38<br/>value = [13.272, 111.704]<br/>class = l>, fillcolor="#51a9e8"] ;
578 -> 579 ;
580 [label=<Residence_type &le; 0.5<br/>gini = 0.03<br/>samples = 5<br/>value = [0.531, 34.37]<br/>class = l>, fillcolor="#3c9fe5"] ;
579 -> 580 ;
581 [label=<work_type &le; 3.5<br/>gini = 0.0<br/>samples = 3<br/>value = [0.0, 25.778]<br/>class = l>, fillcolor="#399de5"] ;
580 -> 581 ;
582 [label=<gini = 0.0<br/>samples = 1<br/>value = [0.0, 8.593]<br/>class = l>, fillcolor="#399de5"] ;
581 -> 582 ;
583 [label=<gini = 0.0<br/>samples = 2<br/>value = [0.0, 17.185]<br/>class = l>, fillcolor="#399de5"] ;
581 -> 583 ;
584 [label=<age &le; 77.5<br/>gini = 0.11<br/>samples = 2<br/>value = [0.531, 8.593]<br/>class = l>, fillcolor="#45a3e7"] ;
580 -> 584 ;
585 [label=<gini = 0.0<br/>samples = 1<br/>value = [0.0, 8.593]<br/>class = l>, fillcolor="#399de5"] ;
584 -> 585 ;
586 [label=<gini = -0.0<br/>samples = 1<br/>value = [0.531, 0.0]<br/>class = C>, fillcolor="#e58139"] ;
584 -> 586 ;
587 [label=<avg_glucose_level &le; 108.325<br/>gini = 0.243<br/>samples = 33<br/>value = [12.741, 77.333]<br/>class = l>, fillcolor="#5aade9"] ;
579 -> 587 ;
588 [label=<gini = 0.0<br/>samples = 4<br/>value = [2.124, 0.0]<br/>class = C>, fillcolor="#e58139"] ;
587 -> 588 ;
589 [label=<age &le; 79.5<br/>gini = 0.212<br/>samples = 29<br/>value = [10.618, 77.333]<br/>class = l>, fillcolor="#54aae9"] ;
587 -> 589 ;
590 [label=<avg_glucose_level &le; 190.825<br/>gini = 0.133<br/>samples = 18<br/>value = [5.309, 68.741]<br/>class = l>, fillcolor="#48a5e7"] ;
589 -> 590 ;
591 [label=<avg_glucose_level &le; 140.885<br/>gini = 0.122<br/>samples = 17<br/>value = [4.778, 68.741]<br/>class = l>, fillcolor="#47a4e7"] ;
590 -> 591 ;
592 [label=<avg_glucose_level &le; 121.63<br/>gini = 0.093<br/>samples = 11<br/>value = [2.654, 51.556]<br/>class = l>, fillcolor="#43a2e6"] ;
591 -> 592 ;
593 [label=<avg_glucose_level &le; 116.385<br/>gini = 0.169<br/>samples = 8<br/>value = [2.654, 25.778]<br/>class = l>, fillcolor="#4da7e8"] ;
592 -> 593 ;
594 [label=<heart_disease &le; 0.5<br/>gini = 0.11<br/>samples = 6<br/>value = [1.593, 25.778]<br/>class = l>, fillcolor="#45a3e7"] ;
593 -> 594 ;
595 [label=<age &le; 77.5<br/>gini = 0.076<br/>samples = 5<br/>value = [1.062, 25.778]<br/>class = l>, fillcolor="#41a1e6"] ;
594 -> 595 ;
596 [label=<gini = 0.0<br/>samples = 1<br/>value = [0.531, 0.0]<br/>class = C>, fillcolor="#e58139"] ;
595 -> 596 ;
597 [label=<gini = 0.04<br/>samples = 4<br/>value = [0.531, 25.778]<br/>class = l>, fillcolor="#3d9fe6"] ;
595 -> 597 ;
598 [label=<gini = -0.0<br/>samples = 1<br/>value = [0.531, 0.0]<br/>class = C>, fillcolor="#e58139"] ;
594 -> 598 ;
599 [label=<gini = -0.0<br/>samples = 2<br/>value = [1.062, 0.0]<br/>class = C>, fillcolor="#e58139"] ;
593 -> 599 ;
600 [label=<gini = 0.0<br/>samples = 3<br/>value = [0.0, 25.778]<br/>class = l>, fillcolor="#399de5"] ;
592 -> 600 ;
601 [label=<avg_glucose_level &le; 163.25<br/>gini = 0.196<br/>samples = 6<br/>value = [2.124, 17.185]<br/>class = l>, fillcolor="#51a9e8"] ;
591 -> 601 ;
602 [label=<gini = 0.0<br/>samples = 2<br/>value = [1.062, 0.0]<br/>class = C>, fillcolor="#e58139"] ;
601 -> 602 ;
603 [label=<heart_disease &le; 0.5<br/>gini = 0.11<br/>samples = 4<br/>value = [1.062, 17.185]<br/>class = l>, fillcolor="#45a3e7"] ;
601 -> 603 ;
604 [label=<hypertension &le; 0.5<br/>gini = 0.058<br/>samples = 3<br/>value = [0.531, 17.185]<br/>class = l>, fillcolor="#3fa0e6"] ;
603 -> 604 ;
605 [label=<gini = 0.0<br/>samples = 1<br/>value = [0.0, 8.593]<br/>class = l>, fillcolor="#399de5"] ;
604 -> 605 ;
606 [label=<avg_glucose_level &le; 175.415<br/>gini = 0.11<br/>samples = 2<br/>value = [0.531, 8.593]<br/>class = l>, fillcolor="#45a3e7"] ;
604 -> 606 ;
607 [label=<gini = 0.0<br/>samples = 1<br/>value = [0.0, 8.593]<br/>class = l>, fillcolor="#399de5"] ;
606 -> 607 ;
608 [label=<gini = -0.0<br/>samples = 1<br/>value = [0.531, 0.0]<br/>class = C>, fillcolor="#e58139"] ;
606 -> 608 ;
609 [label=<gini = -0.0<br/>samples = 1<br/>value = [0.531, 0.0]<br/>class = C>, fillcolor="#e58139"] ;
603 -> 609 ;
610 [label=<gini = 0.0<br/>samples = 1<br/>value = [0.531, 0.0]<br/>class = C>, fillcolor="#e58139"] ;
590 -> 610 ;
611 [label=<bmi &le; 1.5<br/>gini = 0.472<br/>samples = 11<br/>value = [5.309, 8.593]<br/>class = l>, fillcolor="#b3daf5"] ;
589 -> 611 ;
612 [label=<gini = 0.0<br/>samples = 1<br/>value = [0.0, 8.593]<br/>class = l>, fillcolor="#399de5"] ;
611 -> 612 ;
613 [label=<gini = -0.0<br/>samples = 10<br/>value = [5.309, 0.0]<br/>class = C>, fillcolor="#e58139"] ;
611 -> 613 ;
614 [label=<gender &le; 0.5<br/>gini = 0.0<br/>samples = 3<br/>value = [1.593, 0.0]<br/>class = C>, fillcolor="#e58139"] ;
578 -> 614 ;
615 [label=<gini = 0.0<br/>samples = 1<br/>value = [0.531, 0.0]<br/>class = C>, fillcolor="#e58139"] ;
614 -> 615 ;
616 [label=<gini = 0.0<br/>samples = 2<br/>value = [1.062, 0.0]<br/>class = C>, fillcolor="#e58139"] ;
614 -> 616 ;
617 [label=<avg_glucose_level &le; 105.32<br/>gini = 0.135<br/>samples = 34<br/>value = [10.087, 128.889]<br/>class = l>, fillcolor="#48a5e7"] ;
575 -> 617 ;
618 [label=<gini = 0.0<br/>samples = 2<br/>value = [1.062, 0.0]<br/>class = C>, fillcolor="#e58139"] ;
617 -> 618 ;
619 [label=<Residence_type &le; 0.5<br/>gini = 0.122<br/>samples = 32<br/>value = [9.025, 128.889]<br/>class = l>, fillcolor="#47a4e7"] ;
617 -> 619 ;
620 [label=<avg_glucose_level &le; 128.185<br/>gini = 0.243<br/>samples = 11<br/>value = [4.247, 25.778]<br/>class = l>, fillcolor="#5aade9"] ;
619 -> 620 ;
621 [label=<gini = 0.0<br/>samples = 5<br/>value = [2.654, 0.0]<br/>class = C>, fillcolor="#e58139"] ;
620 -> 621 ;
622 [label=<age &le; 79.5<br/>gini = 0.11<br/>samples = 6<br/>value = [1.593, 25.778]<br/>class = l>, fillcolor="#45a3e7"] ;
620 -> 622 ;
623 [label=<gender &le; 0.5<br/>gini = 0.04<br/>samples = 4<br/>value = [0.531, 25.778]<br/>class = l>, fillcolor="#3d9fe6"] ;
622 -> 623 ;
624 [label=<heart_disease &le; 0.5<br/>gini = 0.0<br/>samples = 3<br/>value = [0.0, 25.778]<br/>class = l>, fillcolor="#399de5"] ;
623 -> 624 ;
625 [label=<gini = 0.0<br/>samples = 2<br/>value = [0.0, 17.185]<br/>class = l>, fillcolor="#399de5"] ;
624 -> 625 ;
626 [label=<gini = 0.0<br/>samples = 1<br/>value = [0.0, 8.593]<br/>class = l>, fillcolor="#399de5"] ;
624 -> 626 ;
627 [label=<gini = -0.0<br/>samples = 1<br/>value = [0.531, 0.0]<br/>class = C>, fillcolor="#e58139"] ;
623 -> 627 ;
628 [label=<gini = -0.0<br/>samples = 2<br/>value = [1.062, 0.0]<br/>class = C>, fillcolor="#e58139"] ;
622 -> 628 ;
629 [label=<age &le; 77.5<br/>gini = 0.085<br/>samples = 21<br/>value = [4.778, 103.111]<br/>class = l>, fillcolor="#42a2e6"] ;
619 -> 629 ;
630 [label=<gini = 0.0<br/>samples = 4<br/>value = [0.0, 34.37]<br/>class = l>, fillcolor="#399de5"] ;
629 -> 630 ;
631 [label=<hypertension &le; 0.5<br/>gini = 0.122<br/>samples = 17<br/>value = [4.778, 68.741]<br/>class = l>, fillcolor="#47a4e7"] ;
629 -> 631 ;
632 [label=<age &le; 78.5<br/>gini = 0.081<br/>samples = 12<br/>value = [2.654, 60.148]<br/>class = l>, fillcolor="#42a1e6"] ;
631 -> 632 ;
633 [label=<avg_glucose_level &le; 138.33<br/>gini = 0.196<br/>samples = 6<br/>value = [2.124, 17.185]<br/>class = l>, fillcolor="#51a9e8"] ;
632 -> 633 ;
634 [label=<gini = 0.0<br/>samples = 2<br/>value = [0.0, 17.185]<br/>class = l>, fillcolor="#399de5"] ;
633 -> 634 ;
635 [label=<gini = -0.0<br/>samples = 4<br/>value = [2.124, 0.0]<br/>class = C>, fillcolor="#e58139"] ;
633 -> 635 ;
636 [label=<work_type &le; 3.5<br/>gini = 0.024<br/>samples = 6<br/>value = [0.531, 42.963]<br/>class = l>, fillcolor="#3b9ee5"] ;
632 -> 636 ;
637 [label=<gini = 0.0<br/>samples = 4<br/>value = [0.0, 34.37]<br/>class = l>, fillcolor="#399de5"] ;
636 -> 637 ;
638 [label=<avg_glucose_level &le; 160.31<br/>gini = 0.11<br/>samples = 2<br/>value = [0.531, 8.593]<br/>class = l>, fillcolor="#45a3e7"] ;
636 -> 638 ;
639 [label=<gini = 0.0<br/>samples = 1<br/>value = [0.531, 0.0]<br/>class = C>, fillcolor="#e58139"] ;
638 -> 639 ;
640 [label=<gini = 0.0<br/>samples = 1<br/>value = [0.0, 8.593]<br/>class = l>, fillcolor="#399de5"] ;
638 -> 640 ;
641 [label=<gender &le; 0.5<br/>gini = 0.318<br/>samples = 5<br/>value = [2.124, 8.593]<br/>class = l>, fillcolor="#6ab5eb"] ;
631 -> 641 ;
642 [label=<gini = 0.0<br/>samples = 1<br/>value = [0.0, 8.593]<br/>class = l>, fillcolor="#399de5"] ;
641 -> 642 ;
643 [label=<gini = -0.0<br/>samples = 4<br/>value = [2.124, 0.0]<br/>class = C>, fillcolor="#e58139"] ;
641 -> 643 ;
644 [label=<bmi &le; 4.5<br/>gini = 0.395<br/>samples = 7<br/>value = [3.185, 8.593]<br/>class = l>, fillcolor="#82c1ef"] ;
574 -> 644 ;
645 [label=<gini = -0.0<br/>samples = 5<br/>value = [2.654, 0.0]<br/>class = C>, fillcolor="#e58139"] ;
644 -> 645 ;
646 [label=<age &le; 79.0<br/>gini = 0.11<br/>samples = 2<br/>value = [0.531, 8.593]<br/>class = l>, fillcolor="#45a3e7"] ;
644 -> 646 ;
647 [label=<gini = 0.0<br/>samples = 1<br/>value = [0.0, 8.593]<br/>class = l>, fillcolor="#399de5"] ;
646 -> 647 ;
648 [label=<gini = -0.0<br/>samples = 1<br/>value = [0.531, 0.0]<br/>class = C>, fillcolor="#e58139"] ;
646 -> 648 ;
649 [label=<avg_glucose_level &le; 215.77<br/>gini = 0.308<br/>samples = 48<br/>value = [20.174, 85.926]<br/>class = l>, fillcolor="#67b4eb"] ;
573 -> 649 ;
650 [label=<gini = 0.0<br/>samples = 14<br/>value = [7.432, 0.0]<br/>class = C>, fillcolor="#e58139"] ;
649 -> 650 ;
651 [label=<bmi &le; 1.5<br/>gini = 0.225<br/>samples = 34<br/>value = [12.741, 85.926]<br/>class = l>, fillcolor="#56ace9"] ;
649 -> 651 ;
652 [label=<gini = 0.0<br/>samples = 3<br/>value = [1.593, 0.0]<br/>class = C>, fillcolor="#e58139"] ;
651 -> 652 ;
653 [label=<bmi &le; 4.5<br/>gini = 0.203<br/>samples = 31<br/>value = [11.149, 85.926]<br/>class = l>, fillcolor="#53aae8"] ;
651 -> 653 ;
654 [label=<avg_glucose_level &le; 226.91<br/>gini = 0.188<br/>samples = 29<br/>value = [10.087, 85.926]<br/>class = l>, fillcolor="#50a9e8"] ;
653 -> 654 ;
655 [label=<avg_glucose_level &le; 216.17<br/>gini = 0.422<br/>samples = 8<br/>value = [3.716, 8.593]<br/>class = l>, fillcolor="#8fc7f0"] ;
654 -> 655 ;
656 [label=<gini = 0.0<br/>samples = 1<br/>value = [0.0, 8.593]<br/>class = l>, fillcolor="#399de5"] ;
655 -> 656 ;
657 [label=<gini = -0.0<br/>samples = 7<br/>value = [3.716, 0.0]<br/>class = C>, fillcolor="#e58139"] ;
655 -> 657 ;
658 [label=<age &le; 81.5<br/>gini = 0.141<br/>samples = 21<br/>value = [6.371, 77.333]<br/>class = l>, fillcolor="#49a5e7"] ;
654 -> 658 ;
659 [label=<work_type &le; 3.5<br/>gini = 0.12<br/>samples = 19<br/>value = [5.309, 77.333]<br/>class = l>, fillcolor="#47a4e7"] ;
658 -> 659 ;
660 [label=<heart_disease &le; 0.5<br/>gini = 0.058<br/>samples = 12<br/>value = [2.124, 68.741]<br/>class = l>, fillcolor="#3fa0e6"] ;
659 -> 660 ;
661 [label=<avg_glucose_level &le; 235.105<br/>gini = 0.09<br/>samples = 9<br/>value = [2.124, 42.963]<br/>class = l>, fillcolor="#43a2e6"] ;
660 -> 661 ;
662 [label=<gini = 0.0<br/>samples = 1<br/>value = [0.531, 0.0]<br/>class = C>, fillcolor="#e58139"] ;
661 -> 662 ;
663 [label=<gender &le; 0.5<br/>gini = 0.069<br/>samples = 8<br/>value = [1.593, 42.963]<br/>class = l>, fillcolor="#40a1e6"] ;
661 -> 663 ;
664 [label=<gini = 0.0<br/>samples = 4<br/>value = [0.0, 34.37]<br/>class = l>, fillcolor="#399de5"] ;
663 -> 664 ;
665 [label=<avg_glucose_level &le; 237.575<br/>gini = 0.264<br/>samples = 4<br/>value = [1.593, 8.593]<br/>class = l>, fillcolor="#5eafea"] ;
663 -> 665 ;
666 [label=<gini = 0.0<br/>samples = 1<br/>value = [0.0, 8.593]<br/>class = l>, fillcolor="#399de5"] ;
665 -> 666 ;
667 [label=<gini = -0.0<br/>samples = 3<br/>value = [1.593, 0.0]<br/>class = C>, fillcolor="#e58139"] ;
665 -> 667 ;
668 [label=<gini = 0.0<br/>samples = 3<br/>value = [0.0, 25.778]<br/>class = l>, fillcolor="#399de5"] ;
660 -> 668 ;
669 [label=<avg_glucose_level &le; 248.225<br/>gini = 0.395<br/>samples = 7<br/>value = [3.185, 8.593]<br/>class = l>, fillcolor="#82c1ef"] ;
659 -> 669 ;
670 [label=<gini = -0.0<br/>samples = 6<br/>value = [3.185, 0.0]<br/>class = C>, fillcolor="#e58139"] ;
669 -> 670 ;
671 [label=<gini = 0.0<br/>samples = 1<br/>value = [0.0, 8.593]<br/>class = l>, fillcolor="#399de5"] ;
669 -> 671 ;
672 [label=<bmi &le; 2.5<br/>gini = 0.0<br/>samples = 2<br/>value = [1.062, 0.0]<br/>class = C>, fillcolor="#e58139"] ;
658 -> 672 ;
673 [label=<gini = 0.0<br/>samples = 1<br/>value = [0.531, 0.0]<br/>class = C>, fillcolor="#e58139"] ;
672 -> 673 ;
674 [label=<gini = 0.0<br/>samples = 1<br/>value = [0.531, 0.0]<br/>class = C>, fillcolor="#e58139"] ;
672 -> 674 ;
675 [label=<avg_glucose_level &le; 224.48<br/>gini = 0.0<br/>samples = 2<br/>value = [1.062, 0.0]<br/>class = C>, fillcolor="#e58139"] ;
653 -> 675 ;
676 [label=<gini = 0.0<br/>samples = 1<br/>value = [0.531, 0.0]<br/>class = C>, fillcolor="#e58139"] ;
675 -> 676 ;
677 [label=<gini = 0.0<br/>samples = 1<br/>value = [0.531, 0.0]<br/>class = C>, fillcolor="#e58139"] ;
675 -> 677 ;
678 [label=<gini = 0.0<br/>samples = 2<br/>value = [1.062, 0.0]<br/>class = C>, fillcolor="#e58139"] ;
572 -> 678 ;
}